svm_type c_svc
kernel_type rbf
gamma 0.000488281
nr_class 13
total_sv 124
rho 0.169243 -1.61338 -0.785534 0.331312 -0.839612 1.038 -0.0175742 -0.377027 0.55878 -0.289421 -0.65299 -0.748395 -1.61748 -0.740991 -0.0714646 -0.95543 0.97801 -0.241559 -0.309288 0.696096 -0.279128 -0.736517 -0.903727 -0.135148 1.70135 0.103305 1.95709 1.63058 0.223535 1.86163 0.409093 0.0696234 0.671544 0.693405 0.00605108 0.823638 0.92267 0.15892 0.823313 0.584 0.0564211 0.602077 -1.06959 1.46169 -0.10462 -0.467694 0.743926 -0.297574 -0.713197 -0.780635 2.04616 1.1282 0.178952 1.43366 0.453653 -0.0378653 0.630851 -0.416234 -1.53681 0.369963 -0.504932 -2.51752 -1.04096 -0.494317 0.661351 -0.430556 -0.763883 -0.745551 1.33608 0.157704 -0.684191 0.175027 -0.334654 -1.63768 -1.14743 -0.301344 -0.13097 0.42262
label 0 1 2 3 4 5 6 7 8 9 10 11 12
nr_sv 11 11 7 6 10 8 11 11 9 11 11 10 8
SV
56.66122686183869 74.25559742621324 14.35891466181875 79.34572768783985 45.21815030476732 54.39122948923206 47.68967828779599 31.04951152216337 38.63393484040715 23.53726577071553 39.09410316980608 35.72030006081688 0:-0.783937 1:-0.762216 2:-0.608187 3:-0.724378 4:-0.633501 5:-1 6:-0.890855 7:-0.467831 8:-0.532175 9:-0.906436 10:-0.641336 11:-1 12:-1 13:-0.910345 14:-0.949326 15:-0.865497 16:-0.929824 17:0.921159 18:-0.738827 19:-0.894754 20:-1 21:-0.715993 22:-1 23:-1 24:-1 25:-0.84668 26:-0.64129 27:-0.894754 28:-1 29:-0.940215 30:-0.837482 31:-0.677024 32:-0.784962 33:-1 34:-1 35:-0.802623 36:-0.542505 37:-0.551635 38:-0.961014 39:-0.486364 40:-0.820645 41:-0.787378 42:-1 43:-0.80409 44:-0.750528 45:-0.806397 46:-1 47:-1 48:-0.84018 49:-0.274847 50:-0.900186 51:-0.910345 52:-0.879943 53:-0.0851276 54:-0.594509 55:-0.719274 56:-1 57:-0.883059 58:-0.824588 59:-0.457179 60:-0.637387 61:-1 62:-1 63:-1 64:-1 65:-0.251456 66:-1 67:-0.883059 68:-0.372326 69:-0.883059 70:-0.138384 71:-1 72:-0.0856071 73:-0.797278 74:-0.798605 75:-1 76:-0.672491 77:-0.824588 78:-0.691973 79:-0.477521 80:-0.538 81:-0.384026 82:-1 83:-1 84:-0.473661 85:-1 86:-1 87:-0.898626 88:-0.19299 89:-0.539914 90:-0.72551 91:-0.719346 92:-1 93:-0.30993 94:-1 95:-0.78171 96:-0.956343 97:-1 98:-1 99:-0.750528 100:-0.477521 101:-1 102:-1 103:-1 104:-1 105:-1 106:-1 107:-0.883059 108:-0.797306 109:0.661893 110:-1 111:-0.602305 112:-0.691973 113:-0.924638 114:-0.282626 115:-0.597107 116:-0.766058 117:-0.732995 118:-0.563309 119:-1 120:-0.779113 121:-0.925362 122:-0.594509 123:-0.251476 124:-0.821993 125:-0.590652 126:-0.924638 127:-0.883059 128:-1 129:-0.0175556 130:-1 131:-0.750485 132:-0.539914 133:-0.719297 134:-0.695909 135:-1 136:-1 137:-0.664689 138:-1 139:-1 140:-0.760271 141:-1 142:-0.656421 143:-1 144:-0.202006 145:-0.94153 146:-0.719346 147:-1 148:-0.883059 149:-0.500928 150:-0.73099 151:-0.472392 152:-0.740133 153:-0.820645 154:-1 155:-0.319606 156:-0.703678 157:-0.380114 158:-1 159:-0.532148 160:-1 161:-0.157895 162:-0.833643 163:-1 164:-1 165:-1 166:-1 167:-1 168:-0.827705 169:-0.551635 170:-0.637423 171:-0.649116 172:-1 173:-1 174:-0.652585 175:-1 176:0.351534 177:-1 178:-0.189122 179:-1 180:-1 181:-0.738827 182:-1 183:-0.738827 184:-0.856374 185:-0.0642906 186:-0.947377 187:-0.709603 188:-1 189:-0.846026 190:-1 191:-0.400574 192:-0.73099 193:-0.602407 194:0.0292151 195:-0.750464 196:-0.547706 197:-0.78171 198:-0.910345 199:-1 200:-0.797306 201:-0.656987 202:-1 203:-0.673644 204:-1 205:-0.637497 206:-0.894754 207:-0.847952 208:-0.961577 209:-0.84018 210:-0.883059 211:-0.719346 212:-0.869418 213:-0.738827 214:-1 215:-0.73099 216:-0.728173 217:-0.0642026 218:-0.73099 219:-0.824588 220:-0.869418 221:-0.793866 222:-1 223:-0.910323 224:-0.669268 225:-0.949326 226:-0.732995 227:-1 228:-0.679757 229:-0.36064 230:-0.789454 231:-1 232:-0.684208 233:0.0760385 234:-0.820645 235:-0.797306 236:-0.667328 237:-0.368415 238:-1 239:-0.836425 240:-1 241:-0.910345 242:-0.859673 243:-0.766058 244:-1 245:-0.477521 246:-0.820645 247:-1 248:-0.625747 249:-0.898626 250:-0.346979 251:-1 252:-0.910345 253:-0.19299 254:-0.477521 255:-1 256:-0.641336 257:-0.539914 258:-1 259:-0.820645 260:-0.84018 261:-1 262:-1 263:-0.910045 264:-0.456126 265:-0.860161 266:-0.910323 267:-0.594509 268:-0.649116 269:-0.750528 270:-0.910345 271:-0.157895 272:-1 273:-0.719346 274:-0.394894 275:-1 276:-0.886959 277:-1 278:-0.649086 279:-1 280:-0.578962 281:-0.898626 282:-0.895984 283:-0.738769 284:-1 285:-1 286:-0.690118 287:-0.934502 288:-1 289:-0.723473 290:-1 291:-1 292:-0.703754 293:-0.820645 294:-1 295:-0.953212 296:-1 297:-1 298:-0.5699 299:-0.391815 300:-0.625728 301:-0.578962 302:-0.189122 303:-0.688566 304:-1 305:-1 306:-0.500928 307:-0.802452 308:-1 309:-0.883059 
12.17865459153185 7.12562010374724 3.168748297925002 5.086178437344369 3.907702108974767 2.027718196597895 16.56219034352614 7.927146415176758 10.72324343577439 6.892369393643625 3.238585489204996 9.241628838699826 0:-1 1:-1 2:-1 3:-0.765524 4:-0.0647178 5:-0.621903 6:-1 7:-0.547275 8:-1 9:-0.8806 10:-0.771149 11:0.87245 12:-1 13:-0.771149 14:-1 15:-0.427855 16:-1 17:-1 18:-1 19:-0.73135 20:-1 21:-1 22:-0.104491 23:-1 24:-0.508666 25:-0.217275 26:-1 27:-1 28:-1 29:-0.923717 30:-1 31:-0.175574 32:0.0978099 33:-1 34:-1 35:-0.496177 36:-0.416251 37:-0.771149 38:-1 39:-0.438181 40:-1 41:-1 42:-1 43:-1 44:-1 45:-1 46:-1 47:-1 48:-0.184092 49:-0.0746481 50:-1 51:-1 52:-1 53:-1 54:-1 55:-1 56:-0.490057 57:-1 58:-0.552246 59:0.385601 60:-1 61:-0.219302 62:-1 63:-1 64:-1 65:-1 66:-1 67:-1 68:-0.771149 69:-0.701497 70:-1 71:-1 72:-1 73:-0.87065 74:-0.485921 75:-1 76:-1 77:-1 78:-1 79:-1 80:-0.213936 81:-1 82:-1 83:-1 84:-1 85:-1 86:-1 87:-0.7413 88:-1 89:-1 90:-1 91:0.432789 92:-0.560202 93:-1 94:-1 95:-0.442796 96:-1 97:-1 98:-0.442796 99:-0.3632 100:-1 101:-0.3632 102:-1 103:-0.29853 104:-1 105:-0.711452 106:-0.741303 107:-1 108:-1 109:0.696505 110:-1 111:-1 112:-0.606968 113:-1 114:-0.771149 115:0.542237 116:-1 117:-1 118:-0.442796 119:-1 120:-1 121:-1 122:-1 123:-1 124:-0.545621 125:-0.701501 126:-0.615266 127:-1 128:-1 129:-1 130:-1 131:-0.787733 132:-0.412945 133:-0.9403 134:-0.9403 135:-1 136:-0.747935 137:-1 138:-1 139:-0.85075 140:-1 141:-1 142:-0.29853 143:-1 144:-1 145:-1 146:-1 147:-1 148:-1 149:-1 150:-0.542297 151:-0.615266 152:-1 153:-1 154:-0.482606 155:-1 156:-1 157:-1 158:-1 159:-0.761202 160:-1 161:-1 162:-1 163:-0.320077 164:-1 165:-1 166:-0.422887 167:-0.277913 168:-0.560202 169:-0.771149 170:0.233802 171:-0.701497 172:-1 173:-1 174:-1 175:-1 176:0.724736 177:-1 178:-0.482606 179:-0.830851 180:-0.333333 181:-1 182:-1 183:-1 184:-1 185:-1 186:-0.865675 187:-1 188:-1 189:-1 190:-1 191:-0.490057 192:-1 193:-1 194:-1 195:-0.6816 196:-1 197:-1 198:-0.771149 199:-0.771149 200:-1 201:-1 202:-1 203:-1 204:-1 205:-0.0746768 206:-0.73135 207:-1 208:-0.803842 209:-1 210:-1 211:-1 212:-1 213:-0.333333 214:-1 215:-0.771149 216:0.387727 217:-1 218:-1 219:-1 220:-1 221:-1 222:-0.393034 223:-0.656727 224:-0.577996 225:-0.87065 226:-0.318446 227:-1 228:-0.18255 229:-1 230:-0.462699 231:0.542277 232:-1 233:-0.542297 234:-0.542297 235:-1 236:-1 237:-0.73135 238:-1 239:-0.164918 240:-0.462699 241:-0.771149 242:-0.283606 243:-0.402994 244:-1 245:-1 246:-0.771149 247:0.592 248:-0.761202 249:-1 250:-0.166647 251:-1 252:-1 253:-1 254:-1 255:-1 256:-0.771149 257:-1 258:-1 259:-0.771149 260:-1 261:-0.607619 262:-1 263:-0.311149 264:-1 265:-1 266:-0.656727 267:-0.482606 268:-0.701497 269:-1 270:-1 271:-0.283606 272:-0.825018 273:0.432789 274:-1 275:-1 276:-0.134356 277:-1 278:-0.552246 279:-1 280:-1 281:-0.482599 282:-1 283:-1 284:-0.711452 285:-1 286:-0.208999 287:-0.88856 288:-1 289:-1 290:-1 291:-1 292:-0.243806 293:-0.542297 294:-0.552246 295:-0.8806 296:-1 297:-0.326702 298:-1 299:-1 300:-1 301:-1 302:-1 303:-0.60262 304:-1 305:-1 306:-1 307:-0.747935 308:-1 309:-0.701497 
18.56788038680001 14.43471128247013 4.524115391469329 13.99969441662839 3.427401019587315 4.456522703891438 18.59770340329415 2.44784175585516 38.51107128059995 8.681671039024646 2.279796920132868 9.956769005782595 0:-1 1:-1 2:-1 3:-1 4:-1 5:-1 6:-1 7:-1 8:-1 9:-1 10:-1 11:-1 12:-1 13:-1 14:1 15:-1 16:-1 17:-1 18:-1 19:-1 20:-1 21:-1 22:-1 23:-1 24:-1 25:-1 26:-1 27:-1 28:-1 29:-1 30:-1 31:-1 32:-1 33:-1 34:-1 35:-1 36:-1 37:-1 38:-0.846154 39:-1 40:-1 41:-1 42:-1 43:-1 44:-1 45:-1 46:-1 47:-1 48:-1 49:-1 50:-1 51:-1 52:-1 53:-1 54:-1 55:-1 56:-1 57:-1 58:-1 59:-1 60:-1 61:-1 62:-1 63:-1 64:-1 65:-1 66:-1 67:-1 68:-1 69:-1 70:-1 71:-1 72:-1 73:1 74:-1 75:-1 76:-1 77:-1 78:-1 79:-1 80:-1 81:-1 82:-1 83:-1 84:-1 85:-1 86:-1 87:1 88:-1 89:-1 90:-1 91:-1 92:-1 93:-1 94:-1 95:-1 96:-1 97:-1 98:-1 99:-1 100:-1 101:-1 102:-1 103:-1 104:-1 105:-1 106:-1 107:-1 108:-1 109:-1 110:-1 111:-1 112:-1 113:-1 114:-1 115:-1 116:-1 117:-1 118:-1 119:1 120:-1 121:0.472521 122:-1 123:-1 124:-1 125:-1 126:-1 127:-1 128:-1 129:-1 130:-1 131:-1 132:-1 133:-1 134:-1 135:-1 136:-1 137:-1 138:-1 139:-1 140:-1 141:-1 142:-1 143:-1 144:-1 145:-1 146:-1 147:-1 148:-1 149:-1 150:-1 151:-1 152:-1 153:-1 154:-1 155:-1 156:-1 157:-1 158:-1 159:-1 160:1 161:-1 162:-1 163:-1 164:-1 165:-1 166:-1 167:-1 168:-1 169:-1 170:-1 171:-1 172:-1 173:-1 174:-1 175:-1 176:-1 177:-1 178:-1 179:-1 180:-1 181:-1 182:-1 183:-1 184:-1 185:-1 186:-1 187:-1 188:-1 189:-1 190:-1 191:-1 192:-1 193:-1 194:-1 195:-1 196:-1 197:-1 198:-1 199:-1 200:-1 201:-1 202:-1 203:-1 204:-1 205:-1 206:-1 207:1 208:-1 209:-1 210:-1 211:-1 212:-1 213:-1 214:-1 215:-1 216:-1 217:-1 218:-1 219:-1 220:-1 221:-1 222:-1 223:-1 224:-1 225:1 226:-1 227:-1 228:-1 229:-1 230:-1 231:-1 232:-1 233:-1 234:-1 235:-1 236:-1 237:-1 238:-1 239:-1 240:-1 241:-1 242:-1 243:-1 244:-1 245:-1 246:-1 247:-1 248:-1 249:1 250:-1 251:-1 252:-1 253:-1 254:-1 255:-1 256:-1 257:-1 258:-1 259:-1 260:-1 261:-1 262:-1 263:-1 264:-1 265:-1 266:-1 267:-1 268:-1 269:-1 270:-1 271:-1 272:-1 273:-1 274:-1 275:-1 276:-1 277:-1 278:-1 279:-1 280:-1 281:1 282:-1 283:-1 284:-1 285:-1 286:-1 287:0.723079 288:-1 289:-1 290:-1 291:-1 292:-1 293:-1 294:-1 295:-1 296:-1 297:-1 298:-1 299:-1 300:-1 301:-1 302:-1 303:-1 304:-1 305:-1 306:-1 307:-1 308:-1 309:-1 
8.733870582013513 20.24572975246793 5.576661034865538 9.712001685603369 5.912756872373127 4.333261093912808 13.61867513028749 0 26.01555007263267 5.971315762176106 0.6767926440979743 13.73062237659473 0:-1 1:-1 2:-1 3:-1 4:-1 5:0.357121 6:1 7:-1 8:-1 9:-0.785716 10:-1 11:-0.327926 12:-1 13:-1 14:-1 15:-1 16:-1 17:-1 18:-1 19:-1 20:-1 21:-1 22:-1 23:0.178563 24:-1 25:-1 26:-1 27:-0.035721 28:-1 29:-1 30:-1 31:-1 32:-1 33:-1 34:-1 35:-1 36:-1 37:-1 38:-1 39:-1 40:-1 41:-1 42:-1 43:-1 44:-1 45:-1 46:-1 47:-1 48:-1 49:-1 50:-1 51:-0.178573 52:-1 53:-1 54:-1 55:-1 56:-1 57:-1 58:-1 59:-1 60:-1 61:-1 62:-1 63:-1 64:-1 65:-1 66:-1 67:-1 68:-1 69:-1 70:-1 71:-1 72:-1 73:-1 74:-1 75:-1 76:-1 77:0.607146 78:-1 79:-1 80:-1 81:-1 82:-1 83:-1 84:-1 85:-1 86:-1 87:-1 88:-1 89:-1 90:-1 91:-1 92:-1 93:-1 94:-1 95:-1 96:1 97:-1 98:1 99:-1 100:-1 101:-1 102:1 103:-1 104:-1 105:-1 106:-1 107:-1 108:-1 109:-1 110:-1 111:-1 112:-1 113:0.380945 114:-0.178573 115:-1 116:-1 117:-1 118:1 119:-1 120:-1 121:-0.316335 122:0.857106 123:0.714299 124:-1 125:-1 126:-0.309527 127:-1 128:-1 129:-1 130:-1 131:-1 132:-1 133:-1 134:-0.571433 135:-1 136:-1 137:-1 138:-1 139:-1 140:-1 141:-1 142:-1 143:-1 144:-1 145:-1 146:-1 147:-1 148:-1 149:-1 150:-0.178573 151:-1 152:-1 153:-1 154:-1 155:-1 156:-1 157:-1 158:-1 159:-1 160:-1 161:-1 162:-0.238101 163:-1 164:-1 165:-1 166:-1 167:-1 168:-1 169:-0.178573 170:-1 171:0.0714307 172:-1 173:-1 174:-1 175:-1 176:-1 177:-1 178:-1 179:-1 180:-1 181:-1 182:-1 183:-1 184:-1 185:-1 186:-1 187:-1 188:-1 189:-1 190:-1 191:-1 192:-1 193:-1 194:-1 195:-1 196:-1 197:1 198:-1 199:-1 200:-1 201:-1 202:-1 203:-1 204:-1 205:-1 206:-1 207:-0.535718 208:-1 209:-1 210:0.0714307 211:-1 212:-1 213:-1 214:-1 215:-1 216:-1 217:-1 218:-1 219:-1 220:-1 221:-1 222:-1 223:-1 224:-1 225:-1 226:-1 227:-1 228:-1 229:-1 230:-1 231:-1 232:-1 233:-1 234:-1 235:-1 236:-1 237:-0.035721 238:-1 239:-1 240:-1 241:-1 242:0.285694 243:-1 244:0.857106 245:-1 246:-1 247:-1 248:-1 249:-1 250:-1 251:-1 252:-0.178573 253:-1 254:-1 255:-1 256:-1 257:-1 258:-1 259:-1 260:-1 261:0.408392 262:-1 263:-1 264:-1 265:-1 266:-1 267:-1 268:-1 269:-1 270:-1 271:-1 272:-1 273:-1 274:-1 275:-0.178573 276:-1 277:-1 278:-1 279:-1 280:-1 281:-0.535718 282:-1 283:-1 284:-1 285:-1 286:-1 287:1 288:-1 289:-1 290:-1 291:1 292:-1 293:-0.178573 294:-1 295:-1 296:-1 297:-1 298:-1 299:-1 300:-1 301:-1 302:-1 303:-1 304:-1 305:0.642854 306:-1 307:-1 308:-1 309:-1 
0 0 0 0.344930711895591 0 0 0 0 0.6272852433090884 1.593620803258449 0 0 0:-1 1:-1 2:-0.279555 3:-1 4:0.0107628 5:-1 6:-1 7:-0.021476 8:0.290313 9:-0.741941 10:-0.505359 11:-1 12:-1 13:-0.505359 14:-0.720422 15:-0.752682 16:-1 17:-1 18:-1 19:-1 20:-1 21:-1 22:-0.0322203 23:-1 24:-1 25:-0.154106 26:-1 27:-1 28:-1 29:-0.835121 30:-1 31:-1 32:-1 33:-1 34:-1 35:-1 36:-1 37:-0.0107641 38:-0.95699 39:-0.190491 40:-0.505359 41:-1 42:-1 43:-1 44:-1 45:-1 46:-1 47:-1 48:-0.118245 49:1 50:-1 51:-1 52:-1 53:-1 54:0.118299 55:-1 56:0.102194 57:-1 58:-1 59:-1 60:1 61:-1 62:-1 63:-1 64:-1 65:-1 66:-1 67:-1 68:-1 69:-1 70:-1 71:0.935559 72:-1 73:-0.720422 74:0.111134 75:-1 76:-1 77:-1 78:-0.150498 79:-1 80:-1 81:-1 82:0.473115 83:0.118299 84:0.161271 85:-1 86:-1 87:-0.720422 88:-1 89:0.268865 90:-1 91:-1 92:-1 93:0.268865 94:-1 95:-1 96:-1 97:-1 98:-1 99:-1 100:-1 101:-1 102:-1 103:-1 104:-1 105:-1 106:-0.440851 107:-1 108:0.118299 109:-1 110:-1 111:-1 112:-1 113:-1 114:-0.505359 115:-1 116:-1 117:-1 118:-1 119:-0.440869 120:-1 121:-1 122:0.118299 123:-1 124:-1 125:-0.677412 126:-0.584216 127:-1 128:-1 129:-1 130:-1 131:-0.541205 132:-1 133:-1 134:-0.741941 135:-1 136:-0.455186 137:-0.0752494 138:-1 139:-1 140:-1 141:-1 142:-1 143:-1 144:-1 145:-1 146:-1 147:-1 148:-1 149:-1 150:-1 151:-1 152:-1 153:-1 154:0.118299 155:-1 156:-1 157:-1 158:-1 159:-0.48386 160:-0.720422 161:-1 162:-1 163:-1 164:-1 165:-1 166:-1 167:-0.219638 168:-0.0494165 169:-1 170:-1 171:-0.354814 172:-1 173:-1 174:-1 175:-1 176:-1 177:-1 178:-1 179:-1 180:-1 181:0.440938 182:-1 183:-1 184:-1 185:0.290313 186:-1 187:-1 188:-1 189:-0.150498 190:-1 191:-1 192:-1 193:-1 194:-1 195:-1 196:-1 197:-1 198:-1 199:-0.505359 200:-1 201:-1 202:-1 203:-1 204:-1 205:1 206:-1 207:-1 208:-1 209:-1 210:-1 211:-1 212:-1 213:-1 214:-0.354814 215:-1 216:-1 217:-1 218:-1 219:-1 220:-1 221:-1 222:-1 223:-1 224:-0.0878785 225:-0.720422 226:-1 227:-1 228:-1 229:-1 230:-1 231:-1 232:-1 233:0.978472 234:-1 235:-1 236:-1 237:-1 238:0.699005 239:-1 240:-1 241:-1 242:-1 243:-0.354814 244:-1 245:-1 246:-1 247:-1 248:-1 249:-0.720422 250:-0.639772 251:-1 252:-1 253:-1 254:-1 255:1 256:-1 257:0.268865 258:-1 259:-0.505359 260:-1 261:-1 262:-1 263:-1 264:1 265:-1 266:-0.752682 267:-1 268:-1 269:-1 270:-1 271:0.54842 272:-1 273:-1 274:-1 275:-0.505359 276:-1 277:-1 278:-1 279:-1 280:-0.419337 281:-0.440869 282:-1 283:-1 284:-1 285:-1 286:-1 287:-0.759143 288:-1 289:-1 290:-1 291:-0.397827 292:-1 293:-1 294:-1 295:-0.612905 296:-1 297:-1 298:-1 299:-1 300:-0.311808 301:-1 302:-1 303:-1 304:-1 305:-1 306:-1 307:-1 308:-1 309:-1 
10.36051678522786 0 0 17.08653351646849 0 9.893484124696952 13.89906693795113 3.763611108490944 10.40166210044227 0.08280112353283904 3.22099358233677 0 0:-1 1:-1 2:-1 3:-0.438907 4:0.119049 5:-0.547652 6:-1 7:-0.458367 8:-0.285693 9:-0.928576 10:-0.452367 11:0.120135 12:-1 13:-0.452367 14:-1 15:-0.315478 16:-1 17:-1 18:-1 19:-1 20:-1 21:-1 22:-0.464315 23:-1 24:-1 25:-0.0634833 26:-0.452413 27:-0.678592 28:-1 29:-0.908736 30:-0.50369 31:-1 32:-1 33:-1 34:-1 35:-1 36:-1 37:-0.452367 38:-0.964286 39:0.344375 40:-1 41:-1 42:-1 43:-1 44:-1 45:-0.408761 46:-1 47:-0.142919 48:0.464289 49:-0.261889 50:-1 51:-0.726206 52:-1 53:-1 54:-1 55:-1 56:-0.389914 57:-1 58:-1 59:-1 60:0.107184 61:-1 62:-1 63:-1 64:-1 65:-1 66:0.238105 67:-0.642876 68:-1 69:-1 70:-1 71:-1 72:-1 73:-1 74:-1 75:-1 76:-1 77:-0.464315 78:-1 79:-1 80:-1 81:-0.529784 82:-1 83:-0.380999 84:-0.357129 85:-1 86:-1 87:-0.845248 88:-1 89:0.404803 90:-1 91:-0.142919 92:-1 93:-0.297658 94:-1 95:-1 96:-1 97:-1 98:-1 99:-1 100:-0.202412 101:-1 102:-1 103:-1 104:-0.380999 105:-0.309515 106:-0.6905 107:0.0714307 108:-0.380999 109:0.0148338 110:-1 111:-1 112:-0.0594881 113:-1 114:-0.178573 115:-1 116:-0.642876 117:-1 118:-1 119:-1 120:-1 121:-1 122:-0.380999 123:0.142898 124:-1 125:-0.642852 126:-0.539672 127:-1 128:-1 129:-1 130:-1 131:-0.492053 132:0.404803 133:-1 134:-0.928576 135:-0.184602 136:-1 137:-1 138:-1 139:-0.91072 140:-1 141:-1 142:-0.160704 143:-1 144:-1 145:-0.821441 146:-0.142919 147:-1 148:-1 149:-1 150:-1 151:-1 152:-1 153:-1 154:-1 155:0.0386528 156:-1 157:-0.369091 158:-1 159:-0.714306 160:-1 161:-1 162:-1 163:-1 164:-1 165:-1 166:-1 167:-1 168:-1 169:-0.726206 170:-0.630975 171:-0.642876 172:-1 173:-1 174:-1 175:-1 176:-1 177:-1 178:-0.380999 179:-1 180:-0.202412 181:-1 182:-1 183:-1 184:-1 185:-0.642876 186:-1 187:-1 188:-1 189:-0.529784 190:-0.202412 191:-0.389914 192:-1 193:-1 194:-1 195:-1 196:-1 197:-1 198:-0.726206 199:-0.726206 200:-1 201:-1 202:-0.515664 203:-1 204:-1 205:-1 206:-1 207:-1 208:-0.765301 209:-1 210:-1 211:-1 212:-1 213:-1 214:0.0714307 215:-1 216:-0.169874 217:-1 218:-1 219:-0.464315 220:-1 221:-1 222:-1 223:-0.589291 224:-0.495123 225:-0.845248 226:-1 227:-1 228:-1 229:-1 230:-1 231:-1 232:-0.678592 233:-0.452413 234:-1 235:-1 236:-1 237:-1 238:-1 239:-1 240:-0.357129 241:-1 242:-1 243:-0.642876 244:-0.6905 245:-1 246:-0.726206 247:-0.52384 248:-0.714306 249:-0.845248 250:-0.601179 251:-1 252:-0.726206 253:-0.178638 254:-1 255:-1 256:-1 257:0.404803 258:-1 259:-0.726206 260:-1 261:-1 262:-1 263:-0.175824 264:-1 265:-1 266:-0.726187 267:-1 268:-0.642876 269:-1 270:-1 271:-0.142919 272:-1 273:-1 274:-0.0762784 275:-1 276:-1 277:-1 278:-0.464315 279:-1 280:-0.678592 281:-0.535718 282:-1 283:-1 284:-0.654786 285:-1 286:-0.0536609 287:-1 288:-1 289:-1 290:-1 291:-0.333315 292:-1 293:-0.726206 294:-1 295:-0.85714 296:-1 297:-0.194478 298:-1 299:-1 300:-1 301:-1 302:-0.380999 303:-1 304:-1 305:-0.452413 306:-1 307:-1 308:-1 309:-1 
26.23719367261674 24.05714971866234 3.712068958553992 17.66264165508878 8.480736318377948 13.45765396746209 26.77095391163336 9.450123116919357 27.88755336948772 4.026430604945157 11.34107412224886 18.07091230798143 0:-1 1:-1 2:-0.583867 3:-0.70727 4:0.751563 5:-1 6:-1 7:-0.434798 8:-0.254673 9:-0.776392 10:-0.714292 11:-0.0649228 12:-1 13:-0.714292 14:-1 15:-0.714296 16:-1 17:-1 18:-1 19:-1 20:-1 21:-1 22:-0.441004 23:-1 24:-1 25:-0.511407 26:-0.428585 27:-1 28:-1 29:-0.904765 30:-0.482093 31:-1 32:-1 33:-1 34:-1 35:-1 36:-1 37:-0.428585 38:-0.987578 39:-0.0647645 40:-0.714292 41:-1 42:-1 43:-1 44:-1 45:-0.383034 46:-1 47:-1 48:0.0186142 49:0.15531 50:-1 51:-0.714292 52:-1 53:-1 54:-0.354064 55:-1 56:0.273268 57:-1 58:-1 59:-1 60:0.732992 61:-1 62:-1 63:-1 64:-1 65:-1 66:-1 67:-0.627336 68:-1 69:-1 70:-1 71:0.117991 72:-1 73:-1 74:-0.358202 75:-1 76:-1 77:-0.441004 78:-0.0186443 79:-1 80:-1 81:-1 82:-0.14912 83:0.291872 84:0.00623701 85:-1 86:-1 87:-0.677028 88:-1 89:-0.267095 90:-1 91:-0.105623 92:-1 93:-0.267095 94:-1 95:-1 96:-1 97:-0.167705 98:-1 99:-1 100:-0.167705 101:-1 102:-1 103:-1 104:-0.354064 105:-0.639765 106:-0.354064 107:0.118051 108:0.291872 109:-1 110:-1 111:-1 112:-0.509322 113:-1 114:-0.428585 115:-1 116:-0.627336 117:-1 118:-1 119:-0.838514 120:-1 121:-1 122:-0.354064 123:-0.403734 124:-1 125:-0.627342 126:-0.759841 127:-1 128:-1 129:-1 130:-1 131:-0.469995 132:-1 133:-0.850936 134:-0.850936 135:-0.14912 136:-0.685312 137:-0.465858 138:-1 139:-1 140:-1 141:-1 142:-0.781064 143:-1 144:-1 145:-1 146:-0.105623 147:-1 148:-1 149:-1 150:-1 151:-0.759841 152:-1 153:-1 154:-0.354064 155:-1 156:-1 157:-1 158:-1 159:-0.403749 160:-1 161:-1 162:-1 163:-1 164:-1 165:-1 166:-1 167:-0.549258 168:-0.450937 169:-1 170:-1 171:-0.627336 172:-1 173:-1 174:-1 175:-1 176:-1 177:-1 178:-1 179:-1 180:-1 181:-0.167705 182:-1 183:-1 184:-1 185:-0.254673 186:-1 187:-1 188:-1 189:-0.509322 190:-0.167705 191:-0.363366 192:-1 193:-1 194:-1 195:-1 196:-1 197:-1 198:-1 199:-0.714292 200:-1 201:-1 202:-0.494589 203:-1 204:-1 205:0.155212 206:-1 207:-1 208:-0.755108 209:-1 210:-1 211:-1 212:-1 213:-1 214:-0.627336 215:-1 216:-1 217:-1 218:-1 219:-0.441004 220:-1 221:-1 222:-1 223:-0.714296 224:-0.473153 225:-0.838514 226:-1 227:-1 228:-1 229:-1 230:-1 231:-1 232:-0.664606 233:0.142831 234:-1 235:-1 236:-1 237:-1 238:-0.0186443 239:-1 240:-1 241:-1 242:-1 243:-0.627336 244:-1 245:-1 246:-0.714292 247:-1 248:-0.701874 249:-0.838514 250:-0.79193 251:-1 252:-1 253:-0.142897 254:-1 255:0.155266 256:-1 257:0.465809 258:-1 259:-0.428585 260:-1 261:-1 262:-1 263:-0.139963 264:0.155266 265:-1 266:-0.714296 267:-0.354064 268:-0.627336 269:-1 270:-1 271:-0.105623 272:-1 273:-1 274:-1 275:-0.714292 276:-1 277:-1 278:-0.441004 279:-1 280:-0.664606 281:-0.677028 282:-1 283:-1 284:-0.279529 285:-1 286:-0.0124811 287:-1 288:-1 289:-1 290:-1 291:-0.652181 292:-1 293:-0.714292 294:-1 295:-0.627329 296:-1 297:-1 298:-1 299:-1 300:-0.602496 301:-1 302:-0.354064 303:-1 304:-1 305:-1 306:-1 307:-1 308:-1 309:-1 
20.43268329331401 1.017890377815528 1.144449284564584 0.4207896965120606 0 0 8.364051145656187 0 1.644312617003756 0 1.439198399559097 0 0:-1 1:-1 2:-1 3:-0.600566 4:-0.203365 5:-0.355905 6:-1 7:-0.228774 8:-1 9:-1 10:-0.610148 11:-0.0431314 12:-1 13:-0.610148 14:-1 15:-0.0254264 16:-1 17:-1 18:-1 19:-1 20:-1 21:-1 22:-0.237242 23:-1 24:-1 25:1 26:-1 27:-0.54235 28:-1 29:-1 30:-1 31:-1 32:-1 33:-1 34:-1 35:-1 36:-1 37:-0.610148 38:-0.966102 39:0.914024 40:-1 41:-1 42:-1 43:-1 44:-1 45:-0.15814 46:-1 47:-1 48:-0.305043 49:-1 50:-1 51:-0.610148 52:-1 53:-1 54:-1 55:-1 56:-1 57:-1 58:-1 59:-1 60:-1 61:-1 62:-1 63:-1 64:-1 65:-1 66:0.762675 67:-1 68:-1 69:-1 70:-1 71:0.525515 72:-1 73:-1 74:-1 75:-1 76:-1 77:-1 78:-1 79:-1 80:-1 81:-0.330463 82:0.161038 83:-0.118611 84:-1 85:-1 86:-1 87:-1 88:-1 89:1 90:-1 91:-1 92:-1 93:1 94:-1 95:-1 96:-1 97:-1 98:-1 99:0.0848 100:-1 101:-1 102:-1 103:-1 104:-1 105:-0.0169649 106:-0.559305 107:0.525455 108:-1 109:0.445013 110:-1 111:-1 112:-0.330463 113:-0.672299 114:-0.610148 115:-1 116:-1 117:-1 118:-1 119:-1 120:-1 121:-1 122:-0.118611 123:0.62713 124:-1 125:-1 126:0.310726 127:-1 128:-1 129:-1 130:-1 131:-0.276843 132:1 133:-1 134:-1 135:-1 136:-1 137:-0.271156 138:-1 139:-1 140:-1 141:-1 142:0.493637 143:-1 144:-1 145:-0.745751 146:-1 147:-1 148:-1 149:-1 150:-1 151:-1 152:-1 153:-1 154:-1 155:0.478929 156:-1 157:-0.101654 158:-1 159:-1 160:-1 161:-1 162:-1 163:-1 164:-1 165:-1 166:-1 167:-1 168:-1 169:-0.610148 170:-1 171:-0.491495 172:-1 173:-1 174:-1 175:-1 176:-1 177:-1 178:-0.118611 179:-1 180:0.135678 181:-1 182:-1 183:-1 184:-1 185:-1 186:-1 187:-1 188:-1 189:-1 190:0.135678 191:-0.131304 192:-1 193:-1 194:-1 195:-1 196:-1 197:-1 198:-1 199:-1 200:-1 201:-1 202:-0.310359 203:-1 204:-1 205:-1 206:-1 207:-1 208:-1 209:-0.305043 210:-1 211:-1 212:-1 213:-1 214:0.0169502 215:-1 216:0.182008 217:-1 218:-1 219:-1 220:-0.43218 221:-1 222:-1 223:-0.415251 224:-0.28111 225:-1 226:-1 227:-1 228:-1 229:-1 230:-1 231:-1 232:-0.54235 233:-0.220295 234:-1 235:-1 236:-1 237:-1 238:-1 239:-0.288712 240:-0.54235 241:-1 242:-1 243:-1 244:-0.559305 245:-1 246:-1 247:-0.322 248:-1 249:-1 250:-0.432204 251:-1 252:-1 253:-1 254:-1 255:-1 256:-1 257:1 258:-1 259:-1 260:-0.305043 261:-1 262:-1 263:-0.608843 264:-1 265:-1 266:-0.805076 267:-1 268:-0.491495 269:-1 270:-1 271:0.22039 272:-1 273:-1 274:0.315279 275:-1 276:-1 277:-1 278:-1 279:-1 280:-0.54235 281:0.101699 282:-1 283:-1 284:-1 285:-1 286:-1 287:-0.90508 288:-1 289:-1 290:-1 291:-0.0508484 292:-1 293:-0.220341 294:-1 295:-0.796612 296:-1 297:-1 298:-1 299:-1 300:-1 301:-1 302:-1 303:-1 304:-1 305:-0.220295 306:-1 307:-1 308:-1 309:-1 
10.61690903816226 16.64942305885446 9.543757946778234 19.23640905235984 7.916286757489673 9.172371077151915 12.22469228486281 0 11.01291057083206 6.411415158927617 5.766841442716252 12.12471956373983 0:-0.28474 1:-1 2:-1 3:-0.39187 4:0.212859 5:-1 6:-1 7:0.174174 8:-0.612876 9:-1 10:-0.703206 11:-0.75717 12:-1 13:-0.703206 14:-1 15:-0.554837 16:-1 17:-1 18:-1 19:-0.651592 20:-1 21:-1 22:-1 23:-1 24:0.274307 25:-1 26:-1 27:-1 28:-1 29:-0.703224 30:-1 31:-1 32:0.423622 33:-1 34:-1 35:-1 36:-0.242945 37:-0.406458 38:-1 39:-0.514295 40:-1 41:-1 42:-1 43:-1 44:-1 45:-1 46:-1 47:-1 48:0.0580566 49:-0.599975 50:-1 51:-1 52:-1 53:-1 54:-1 55:-0.53546 56:-1 57:-1 58:-0.419314 59:0.796964 60:-1 61:0.012397 62:-1 63:-1 64:-1 65:-1 66:-0.329 67:-1 68:-1 69:-1 70:-1 71:-1 72:-1 73:-0.832248 74:1 75:-0.393524 76:-0.458043 77:-1 78:-1 79:-1 80:-0.490283 81:-1 82:-1 83:-1 84:-1 85:-1 86:-1 87:-0.832248 88:-1 89:-1 90:-1 91:-1 92:-1 93:-1 94:-1 95:-1 96:-1 97:-1 98:-1 99:-0.174144 100:-1 101:-0.174144 102:-1 103:-1 104:-1 105:-0.251631 106:-0.6645 107:-1 108:-1 109:0.100085 110:-1 111:-1 112:-1 113:-0.750522 114:-0.703206 115:1 116:-1 117:-1 118:-1 119:-1 120:-1 121:-1 122:-1 123:-1 124:-0.410722 125:-1 126:-0.00216534 127:-1 128:-1 129:-1 130:-1 131:-1 132:-1 133:-0.922576 134:-1 135:-1 136:-0.673101 137:-1 138:-1 139:-0.806455 140:-1 141:-1 142:-0.545173 143:-1 144:-1 145:-1 146:-0.0709194 147:-1 148:-1 149:-1 150:-1 151:-0.251605 152:-1 153:-1 154:-0.329 155:-1 156:-1 157:-0.316091 158:-1 159:-1 160:-1 161:-1 162:-1 163:-1 164:-1 165:-1 166:-1 167:-1 168:-1 169:-0.109665 170:1 171:-1 172:-0.703206 173:-1 174:-1 175:-0.851605 176:0.118391 177:-1 178:-0.329 179:-0.780634 180:-1 181:-1 182:-1 183:-1 184:-1 185:-1 186:-1 187:-1 188:-1 189:-1 190:-1 191:-1 192:-1 193:-1 194:-1 195:-0.174208 196:0.496781 197:-1 198:-0.703206 199:-0.703206 200:-1 201:-1 202:-1 203:-1 204:-0.663976 205:0.200037 206:-0.303237 207:-1 208:-0.745626 209:-1 210:-1 211:-1 212:-1 213:-0.13541 214:-1 215:-0.703206 216:-0.100139 217:-1 218:-1 219:-1 220:-1 221:-1 222:-1 223:-0.703233 224:-1 225:-1 226:-1 227:-1 228:-1 229:-1 230:-0.651592 231:1 232:-1 233:-0.406412 234:-0.703206 235:-1 236:-1 237:-0.651592 238:-1 239:0.624423 240:0.393525 241:-0.406458 242:-0.53546 243:-0.225812 244:-1 245:-1 246:-1 247:-0.48384 248:-1 249:-1 250:-0.135492 251:-1 252:-1 253:-1 254:-1 255:-0.399953 256:-0.406458 257:-1 258:-1 259:-1 260:-0.470931 261:-0.491127 262:-0.322554 263:-0.404472 264:-1 265:-1 266:-0.851605 267:-0.329 268:-1 269:-1 270:-1 271:0.858017 272:-0.773069 273:-0.0709194 274:-1 275:-1 276:-0.625787 277:-1 278:-1 279:-1 280:-0.303237 281:-0.329043 282:-1 283:-1 284:-1 285:-1 286:0.0258367 287:-0.855486 288:-1 289:-1 290:-1 291:-1 292:-0.0193038 293:-1 294:-0.419314 295:-0.922576 296:-1 297:-1 298:-1 299:-1 300:-1 301:-1 302:-1 303:-0.484644 304:-1 305:-0.406412 306:-1 307:-1 308:-1 309:-0.612876 
22.56175961198717 0 4.725192473440765 0 3.300416465750511 11.00883487117452 7.286686283318081 10.26985010258812 5.987158571666525 2.853323199071552 8.067428522105812 10.99388450735856 0:-1 1:-1 2:-0.676326 3:-0.772311 4:0.816421 5:-0.632847 6:-1 7:-0.560379 8:-1 9:-0.826084 10:-1 11:1 12:0.159486 13:-0.777773 14:-1 15:-0.444438 16:-1 17:-1 18:-1 19:-0.739126 20:-0.572931 21:-1 22:-0.130411 23:-1 24:-0.522888 25:-0.239931 26:-1 27:-1 28:-1 29:-1 30:-1 31:-0.199437 32:-1 33:-1 34:-1 35:-1 36:-1 37:-0.333318 38:-1 39:-0.636295 40:-1 41:-1 42:-0.265694 43:-1 44:-1 45:-0.520115 46:-0.439592 47:-1 48:0.188438 49:0.19809 50:-0.876326 51:-1 52:-1 53:-1 54:-1 55:-1 56:-0.0096351 57:-1 58:-0.565206 59:-1 60:-0.101418 61:-1 62:-1 63:-1 64:-1 65:-1 66:-0.497582 67:-0.710137 68:-1 69:-0.710137 70:-1 71:-1 72:-1 73:-0.874394 74:-0.500801 75:-1 76:-1 77:-1 78:-1 79:-1 80:-1 81:-1 82:-1 83:-1 84:-1 85:-1 86:-1 87:-0.748788 88:-1 89:-1 90:-1 91:-0.304342 92:-0.572931 93:-1 94:-1 95:-0.458924 96:-1 97:-1 98:-0.458924 99:-0.381632 100:-1 101:-0.381632 102:-1 103:-0.318834 104:-1 105:-0.719804 106:-0.748791 107:-1 108:-1 109:0.6474 110:-1 111:-1 112:-0.618344 113:-0.813201 114:-1 115:-0.500801 116:-1 117:-1 118:-0.458924 119:-1 120:-0.452485 121:-0.815042 122:-0.497582 123:-1 124:-1 125:-0.855071 126:-0.813201 127:-1 128:-1 129:-1 130:-1 131:-0.793877 132:-0.429937 133:-0.942028 134:-0.884056 135:-1 136:-0.755231 137:-1 138:-1 139:-0.782604 140:-1 141:-1 142:0.0217491 143:-0.739126 144:-0.0112567 145:-0.855071 146:-1 147:-1 148:-1 149:-1 150:-0.333318 151:-0.813201 152:-1 153:-1 154:-1 155:-1 156:-1 157:-0.487916 158:-1 159:-0.536228 160:-1 161:-1 162:-1 163:-0.339757 164:-1 165:-1 166:0.120817 167:-0.649407 168:-0.145863 169:-0.777773 170:-1 171:-0.420274 172:-1 173:-1 174:-1 175:-1 176:-0.162593 177:-1 178:-1 179:-1 180:0.29474 181:-1 182:-1 183:-1 184:-1 185:-1 186:-0.869563 187:-1 188:-1 189:-1 190:-0.35263 191:-0.504818 192:-0.777773 193:-0.0144839 194:-1 195:-0.690816 196:-1 197:-1 198:-0.777773 199:-1 200:-1 201:-1 202:-1 203:-1 204:-1 205:-1 206:-1 207:-1 208:-0.90476 209:-1 210:-0.710137 211:-1 212:-1 213:-1 214:-1 215:-0.777773 216:0.347559 217:0.159486 218:-1 219:-1 220:-1 221:-1 222:0.178796 223:-0.55555 224:-0.180422 225:-0.874394 226:-1 227:-1 228:-0.206211 229:-1 230:-0.739126 231:-1 232:-1 233:-0.555545 234:-0.555545 235:-1 236:-1 237:-0.739126 238:-1 239:-0.189089 240:-0.739126 241:-0.777773 242:0.0434877 243:-1 244:-1 245:-1 246:-0.777773 247:0.54592 248:-1 249:-1 250:-0.51448 251:-1 252:-1 253:-1 254:-1 255:-1 256:-1 257:-1 258:-1 259:-0.777773 260:-1 261:-1 262:-1 263:-0.554058 264:-0.550709 265:-1 266:-0.55555 267:-0.497582 268:-1 269:-0.381632 270:-1 271:-1 272:-0.830083 273:0.391317 274:-1 275:-1 276:-0.439608 277:-1 278:-1 279:-1 280:-1 281:0.256035 282:-1 283:-1 284:-1 285:-1 286:-1 287:-0.945893 288:-1 289:-0.771562 290:-1 291:-1 292:-1 293:-0.333318 294:-0.565206 295:-0.884056 296:-1 297:-0.34619 298:-1 299:-1 300:-1 301:-1 302:-1 303:-0.614122 304:-0.710137 305:-0.555545 306:-0.381632 307:-1 308:-0.0402305 309:-1 
9.66323713107359 5.319789291388548 6.362989494124402 18.8910487661808 10.27210936210115 3.523291510846931 10.06220683538525 4.527466939031906 1.041644076763051 3.844235648032791 5.021824990141619 3.987191262230321 0:-0.0762153 1:-1 2:-1 3:-1 4:0.566668 5:0.266682 6:-0.533348 7:-1 8:-1 9:-0.900004 10:-1 11:-0.0590892 12:1 13:-1 14:-0.783342 15:-1 16:-0.900004 17:-1 18:-1 19:-1 20:-0.263349 21:-1 22:-1 23:-1 24:-1 25:-1 26:-1 27:-1 28:-1 29:-1 30:-1 31:-1 32:-1 33:-1 34:-1 35:-1 36:-1 37:-0.233313 38:-1 39:-1 40:-1 41:-1 42:-1 43:-1 44:-1 45:-0.172246 46:-0.0333507 47:-1 48:-0.316687 49:-0.483353 50:-0.786675 51:-0.61668 52:-1 53:-1 54:-1 55:-1 56:-1 57:-1 58:-0.250023 59:-1 60:0.550058 61:-1 62:-1 63:-1 64:-1 65:-1 66:-0.133378 67:-0.500015 68:-1 69:-0.500015 70:-1 71:-1 72:-1 73:-1 74:-1 75:-1 76:-0.300042 77:-0.250023 78:-1 79:-1 80:-1 81:-1 82:-1 83:-1 84:-1 85:-1 86:-1 87:-0.566658 88:-1 89:-1 90:-1 91:-1 92:-1 93:-1 94:-1 95:-1 96:-0.440002 97:-1 98:-1 99:-1 100:-1 101:-1 102:-0.0666965 103:0.175015 104:-0.133378 105:-1 106:-1 107:-1 108:-1 109:0.420801 110:-0.0762153 111:-1 112:-1 113:-0.355541 114:-0.61668 115:-1 116:-0.500015 117:-1 118:-0.0666965 119:-1 120:-0.0555902 121:-0.680947 122:-0.133378 123:-1 124:-1 125:-1 126:-0.67779 127:-1 128:-1 129:-1 130:-1 131:-1 132:-1 133:-1 134:-0.700001 135:-1 136:-1 137:-1 138:-1 139:-1 140:-1 141:-1 142:-0.412493 143:-0.550018 144:0.705485 145:-0.750011 146:-1 147:-1 148:-1 149:-1 150:-0.233313 151:-1 152:-1 153:-1 154:-1 155:-1 156:-1 157:-1 158:-1 159:-0.600019 160:-1 161:-1 162:-1 163:0.138855 164:-1 165:-1 166:-0.0333507 167:-1 168:-0.263349 169:-0.61668 170:-1 171:3.00003e-05 172:-1 173:-1 174:-1 175:-1 176:-1 177:-1 178:-1 179:-1 180:0.11665 181:-1 182:-1 183:-1 184:-1 185:-1 186:-1 187:-1 188:-1 189:-1 190:-1 191:-0.145859 192:-0.61668 193:-1 194:-1 195:-1 196:-1 197:-0.0666965 198:-1 199:-1 200:-1 201:-1 202:-1 203:-1 204:-1 205:-1 206:-1 207:-0.783342 208:-1 209:-1 210:-1 211:-1 212:-1 213:-1 214:-1 215:-1 216:-1 217:1 218:-1 219:-1 220:-1 221:-1 222:0.0166534 223:-0.808342 224:-0.293155 225:-1 226:-1 227:-1 228:-1 229:-1 230:-1 231:-1 232:-1 233:-0.233359 234:-0.61668 235:-1 236:-1 237:-0.0999811 238:-1 239:-1 240:-1 241:-1 242:-0.400029 243:-1 244:-0.566689 245:-1 246:-1 247:1 248:-1 249:-1 250:-0.720842 251:-1 252:-1 253:-1 254:-1 255:-1 256:-1 257:-1 258:-1 259:-1 260:-1 261:-0.342772 262:-1 263:-1 264:-0.225017 265:-1 266:-0.616661 267:-1 268:-1 269:0.066624 270:-1 271:-1 272:-1 273:-1 274:-1 275:-1 276:-1 277:-1 278:-1 279:-1 280:-1 281:0.51666 282:-1 283:-1 284:-1 285:-1 286:-1 287:-0.253328 288:-1 289:-0.605967 290:-1 291:0.400011 292:-1 293:0.533327 294:-1 295:-1 296:-1 297:-1 298:-1 299:-0.133378 300:-1 301:-1 302:-1 303:-0.334398 304:-1 305:-1 306:0.066624 307:-1 308:0.655607 309:-1 
-1.331792068004664 5.62377021876381 0 13.32345359533809 0 0.1189732301658353 29.63017284162866 28.31279765783092 16.21870763497625 3.294707957358032 17.69221392920961 0 0:-0.441494 1:-0.385347 2:-1 3:-1 4:-0.289655 5:-0.808558 6:-1 7:-0.541542 8:-1 9:-0.879088 10:-0.420673 11:-0.620775 12:-1 13:-1 14:-1 15:-0.71034 16:-0.939544 17:-0.503499 18:-1 19:-0.863974 20:-1 21:-1 22:-0.773288 23:-1 24:-0.751222 25:-0.603682 26:-1 27:-1 28:-1 29:-0.922751 30:-0.579904 31:-0.165134 32:-1 33:-1 34:-0.749776 35:-0.744898 36:-1 37:-1 38:-1 39:-0.620711 40:-1 41:-0.45039 42:-1 43:-0.746838 44:-0.677568 45:-0.249329 46:-1 47:-0.637267 48:-0.79344 49:-0.687643 50:-0.871027 51:-0.884125 52:-0.844832 53:-0.704429 54:-0.738027 55:-1 56:-1 57:-0.848858 58:-0.773288 59:-1 60:-0.765729 61:-1 62:-0.415579 63:-1 64:-1 65:-0.355136 66:0.30976 67:-1 68:-0.884125 69:-0.697717 70:-0.814431 71:-0.0931509 72:-1 73:-0.934506 74:-1 75:-1 76:-0.788408 77:-0.319863 78:-1 79:-1 80:-0.601991 81:-0.402986 82:-1 83:-0.214081 84:-1 85:-1 86:-1 87:-0.869012 88:-0.652384 89:-0.702755 90:-0.822662 91:0.450932 92:-1 93:-0.702755 94:-1 95:-0.153609 96:-1 97:-1 98:-1 99:-0.032704 100:-0.662446 101:-0.677568 102:-1 103:-0.644824 104:-1 105:-1 106:-0.738027 107:-1 108:-0.476054 109:-0.141006 110:-1 111:-0.743064 112:-1 113:-1 114:-0.536501 115:-0.739706 116:-0.697717 117:-0.654908 118:-1 119:-0.803518 120:-0.714512 121:-1 122:-0.476054 123:-0.516344 124:-0.769933 125:-1 126:-0.610394 127:-0.848858 128:-1 129:-1 130:-1 131:-0.785045 132:-0.405511 133:-0.939544 134:-0.848872 135:-0.309816 136:-1 137:-0.566735 138:-0.770269 139:-0.886645 140:0.23936 141:-1 142:0.154288 143:-0.727948 144:-0.484445 145:-1 146:-1 147:-0.408859 148:-1 149:-0.677568 150:-0.768251 151:-1 152:-1 153:-1 154:-0.476054 155:-0.120845 156:-0.808558 157:-0.732987 158:-1 159:-0.879089 160:-0.934506 161:-1 162:-1 163:-1 164:-0.566549 165:0.23936 166:-0.415579 167:-0.634384 168:-0.777316 169:-1 170:-0.843822 171:-0.697717 172:-0.884125 173:-0.601991 174:-0.55098 175:-0.942063 176:-0.563356 177:-0.766424 178:-0.476054 179:-1 180:-1 181:-0.662446 182:-0.848858 183:-0.662446 184:-1 185:-0.697717 186:-0.863974 187:-1 188:-0.214081 189:-1 190:0.350218 191:-1 192:-1 193:-0.486128 194:0.329989 195:-1 196:-0.70779 197:-1 198:-0.768251 199:-0.768251 200:-0.214081 201:-0.55667 202:-0.79502 203:-1 204:-1 205:-0.53148 206:-0.727948 207:-1 208:-0.801358 209:-1 210:-1 211:-0.274534 212:-0.831228 213:0.687638 214:-0.848858 215:-0.884125 216:-1 217:-1 218:-0.768251 219:-0.546575 220:-0.831228 221:-0.46716 222:-0.385347 223:-0.768253 224:-0.358979 225:-0.869012 226:-0.654908 227:-1 228:-1 229:-0.79344 230:-0.727948 231:-0.219096 232:-0.727948 233:-0.0730024 234:-0.884125 235:-0.738027 236:-0.785045 237:-0.727948 238:-0.203982 239:-0.788586 240:-1 241:-1 242:-0.818633 243:-1 244:-0.476054 245:-0.662446 246:-0.652376 247:-0.39544 248:-1 249:-1 250:-0.578098 251:0.428274 252:-1 253:-1 254:-0.662446 255:-0.531458 256:-0.884125 257:-0.702755 258:-0.69016 259:-0.652376 260:-0.79344 261:-1 262:-1 263:-1 264:-0.765729 265:-1 266:-0.71034 267:-0.476054 268:-1 269:-0.677568 270:-1 271:0.450932 272:-1 273:-0.274534 274:-0.609063 275:-1 276:-0.269553 277:-0.945302 278:-1 279:-0.203982 280:-0.727948 281:-0.803518 282:-0.865564 283:-0.662457 284:-0.853899 285:-0.249348 286:-0.599491 287:-0.943574 288:-1 289:-0.880887 290:-0.662446 291:-0.576805 292:-0.23423 293:-0.884125 294:-1 295:-0.969772 296:-1 297:0.363649 298:-0.444113 299:-1 300:-0.838784 301:-1 302:-0.214081 303:-1 304:-0.697717 305:-0.768251 306:-0.677568 307:-0.872372 308:0.00089401 309:-1 
-7.353890447634204 9.585290761837912 1.648992604682801 7.660727886607064 2.312767652488375 5.201793018307315 11.83100917886414 2.137112955174381 5.853392340979437 1.563377476475597 3.281067828745907 8.699052211725324 0:-1 1:-1 2:-1 3:-1 4:-1 5:-1 6:-0.0344963 7:0.568933 8:-1 9:-1 10:-1 11:0.297817 12:-1 13:-1 14:-1 15:-0.603459 16:-1 17:-1 18:-1 19:-1 20:-1 21:-1 22:-1 23:-1 24:-1 25:-1 26:-1 27:-1 28:-1 29:-0.735638 30:-1 31:-1 32:-1 33:-1 34:-1 35:-1 36:-1 37:-1 38:-1 39:-0.351 40:-1 41:-1 42:-1 43:-1 44:-1 45:0.712625 46:1 47:-1 48:-1 49:-1 50:-0.55863 51:-1 52:-1 53:-1 54:-1 55:-1 56:-1 57:-1 58:-1 59:-1 60:-1 61:-1 62:1 63:-1 64:-1 65:-1 66:-1 67:-1 68:-1 69:-1 70:-1 71:-1 72:-1 73:-1 74:-1 75:-1 76:-1 77:-1 78:-1 79:-1 80:-1 81:-1 82:-1 83:-1 84:-0.0689851 85:-1 86:-1 87:-1 88:-1 89:-1 90:-1 91:-1 92:-1 93:-1 94:-1 95:-1 96:-0.613803 97:-1 98:-1 99:-1 100:-1 101:-1 102:-1 103:-1 104:-1 105:1 106:-1 107:-1 108:-1 109:-1 110:-1 111:-1 112:-1 113:1 114:-1 115:-1 116:-1 117:-1 118:-1 119:-1 120:0.953987 121:-1 122:-1 123:-1 124:-1 125:-0.482773 126:1 127:-1 128:-1 129:-1 130:-1 131:-0.264384 132:-1 133:-1 134:-1 135:-1 136:-1 137:0.482714 138:-1 139:-0.741384 140:-1 141:-1 142:-0.392259 143:-1 144:-1 145:-1 146:-1 147:-1 148:-1 149:-1 150:-1 151:1 152:-1 153:-1 154:-1 155:-1 156:-1 157:-1 158:-1 159:-1 160:-1 161:-1 162:-1 163:-1 164:-1 165:-1 166:1 167:-1 168:-1 169:-0.206909 170:-1 171:-1 172:-1 173:-1 174:-1 175:-0.603459 176:-1 177:-1 178:-1 179:-1 180:-1 181:-1 182:-1 183:-1 184:-1 185:-1 186:-1 187:-1 188:-1 189:-1 190:-1 191:-1 192:-1 193:-1 194:-1 195:-1 196:1 197:-1 198:-1 199:-1 200:-1 201:-1 202:0.402962 203:-1 204:-1 205:-1 206:-1 207:-1 208:-0.660105 209:-1 210:-1 211:-1 212:-1 213:-1 214:-1 215:0.586228 216:-1 217:-1 218:-1 219:-1 220:-1 221:-1 222:-1 223:-1 224:-1 225:-1 226:-1 227:-1 228:-1 229:-1 230:-1 231:-1 232:-1 233:-1 234:-0.206909 235:-1 236:-1 237:0.862084 238:-1 239:-1 240:-0.0689851 241:-1 242:-1 243:-1 244:-1 245:-1 246:-1 247:0.37928 248:-1 249:-1 250:-1 251:-1 252:-1 253:-1 254:-1 255:-1 256:-1 257:-1 258:-1 259:-1 260:-1 261:-1 262:-1 263:-1 264:-1 265:-1 266:-0.603459 267:-1 268:-1 269:-1 270:-1 271:-1 272:-1 273:-1 274:-1 275:-1 276:1 277:-1 278:-1 279:-1 280:-0.0689851 281:-1 282:-1 283:-1 284:1 285:-1 286:-1 287:-0.613789 288:-0.0689851 289:-1 290:-1 291:0.931063 292:-1 293:-1 294:-1 295:-1 296:-1 297:-1 298:-1 299:-1 300:-1 301:-0.0689851 302:0.793042 303:-1 304:-1 305:-1 306:-1 307:-1 308:0.712625 309:0.0344703 
-0 8.600185270078324 3.972807574061195 11.03830118583656 16.71544797072103 9.889425412161797 5.168909014943524 4.485272903095415 0 3.856416374292037 17.57377679372121 10.64257959547752 0:-0.68239 1:-0.650461 2:-1 3:-1 4:-0.461296 5:-1 6:-0.839559 7:0.303758 8:-1 9:-1 10:-0.472791 11:-0.784306 12:-1 13:-1 14:-1 15:-0.802293 16:-0.862468 17:-1 18:-0.61608 19:-1 20:-1 21:-1 22:-0.742147 23:-1 24:-1 25:-0.323789 26:-1 27:-1 28:-1 29:-0.868195 30:-1 31:-0.0502941 32:-1 33:-1 34:-0.715407 35:-1 36:-0.663831 37:-1 38:-1 39:-0.568576 40:-1 41:-0.687449 42:-1 43:-0.80801 44:-1 45:-0.146121 46:-1 47:-0.587443 48:-0.530053 49:-0.82237 50:-0.706598 51:-1 52:-0.823519 53:-0.663831 54:-0.702044 55:-1 56:-1 57:-0.828098 58:-0.484205 59:0.596157 60:-0.73355 61:-1 62:-0.667653 63:-0.313694 64:-1 65:-1 66:-0.106027 67:-0.828098 68:-1 69:-0.484235 70:-0.788943 71:0.0315903 72:-1 73:-1 74:-1 75:-1 76:-0.759345 77:-0.484205 78:-1 79:-1 80:-0.773661 81:-0.320904 82:-1 83:-0.702044 84:-1 85:-1 86:-0.782262 87:-0.850994 88:-0.604637 89:-0.661927 90:-0.596536 91:-0.174743 92:-0.746729 93:-1 94:-1 95:-0.358123 96:-1 97:-0.61608 98:-0.679117 99:0.100288 100:0.151893 101:-1 102:-1 103:-0.798019 104:-1 105:-0.833831 106:-0.851022 107:-0.656137 108:-0.403983 109:-1 110:-1 111:-1 112:-0.773661 113:-1 114:-0.340954 115:-0.703952 116:-0.312333 117:-0.607507 118:-1 119:-0.850994 120:-0.675299 121:-0.945156 122:-0.403983 123:-1 124:-0.738332 125:-0.828071 126:-0.55684 127:-1 128:-1 129:-0.51869 130:-1 131:-0.510997 132:-1 133:-1 134:-0.896848 135:0.177615 136:-0.854841 137:-0.753612 138:-0.738714 139:-0.785094 140:0.409717 141:-1 142:-0.494977 143:-1 144:-0.413631 145:-1 146:-1 147:-0.663831 148:-1 149:-1 150:-0.604582 151:-1 152:-1 153:-0.736372 154:-0.702044 155:1 156:-0.782262 157:-0.392516 158:-1 159:-0.862481 160:-1 161:-0.587443 162:-1 163:-0.608446 164:-0.507012 165:0.40984 166:-0.667653 167:-0.792082 168:-1 169:-1 170:-1 171:-1 172:-0.868209 173:-0.547322 174:-0.489305 175:-1 176:-1 177:-0.468589 178:-0.106027 179:-1 180:-0.61608 181:-0.61608 182:-1 183:-0.61608 184:-1 185:-1 186:-0.922645 187:-1 188:-0.702044 189:-1 190:0.151893 191:-0.412567 192:-0.868209 193:-0.415545 194:0.512848 195:-0.633216 196:-0.00284206 197:-1 198:-0.604582 199:-1 200:0.19193 201:-0.495776 202:-1 203:-0.520261 204:-1 205:-0.467125 206:-0.690526 207:-0.92551 208:-0.830536 209:-1 210:-1 211:-0.174743 212:-1 213:0.919866 214:-1 215:-1 216:-1 217:-0.312372 218:-0.868209 219:-1 220:-0.808047 221:-0.696986 222:-0.300799 223:-1 224:-0.513869 225:-0.702014 226:-0.607507 227:-1 228:-1 229:-0.765068 230:-1 231:-0.555917 232:-0.84529 233:0.0544183 234:-0.868209 235:-1 236:-1 237:-0.690526 238:-0.0944857 239:-0.759547 240:-1 241:-1 242:-0.793722 243:-0.828098 244:-0.255005 245:-1 246:-1 247:-0.08312 248:-1 249:-0.92551 250:-0.520042 251:0.624646 252:-1 253:0.186228 254:-0.232027 255:-0.73355 256:-0.868209 257:-0.661927 258:-1 259:-0.472791 260:-0.295121 261:-1 262:-1 263:-1 264:-0.73355 265:-1 266:-0.538692 267:0.48999 268:-0.828098 269:-0.63328 270:-1 271:-0.174743 272:-1 273:-1 274:-0.110577 275:-1 276:-0.335267 277:-1 278:-0.742147 279:0.358192 280:-0.690526 281:-0.92551 282:-1 283:-0.808047 284:-1 285:-0.146093 286:-1 287:-1 288:-0.84529 289:-0.593531 290:-0.61608 291:-1 292:-0.128895 293:-1 294:-1 295:-1 296:-1 297:-0.224388 298:-0.367759 299:-0.702044 300:-1 301:-1 302:-0.702044 303:-0.771157 304:-0.828098 305:-0.736418 306:-1 307:-1 308:-0.146121 309:-1 
-57.98002998940662 29.90807875004099 14.04723442821563 30.74279073336835 27.10916286942294 31.28685219748101 27.27312131974381 14.31999206410178 24.26833791544978 19.32044113972245 36.53968744273482 36.11432675231092 0:-0.475861 1:-0.711584 2:-0.841613 3:-0.888583 4:-0.333365 5:-0.820337 6:-0.867615 7:-0.569752 8:-0.716317 9:-0.85816 10:-0.673766 11:-0.733082 12:-1 13:-1 14:-1 15:-0.619398 16:-0.914896 17:-0.534049 18:-1 19:-0.872344 20:-1 21:-1 22:-0.574476 23:-1 24:-0.76653 25:-0.628068 26:-1 27:-1 28:-1 29:-0.855008 30:-0.802877 31:0.175242 32:-1 33:-1 34:-0.765173 35:-0.760595 36:-0.722617 37:-1 38:-0.995272 39:-0.555062 40:-1 41:-0.484209 42:-1 43:-1 44:-0.394816 45:-0.765173 46:-1 47:-0.659587 48:-1 49:-0.560295 50:-0.878963 51:-0.891255 52:-1 53:-0.722617 54:-0.754147 55:-0.829793 56:-0.757688 57:-0.858159 58:-1 59:-1 60:-0.780144 61:-1 62:-0.72577 63:-1 64:-1 65:-0.394816 66:-0.0165878 67:-0.858159 68:-0.782511 69:-0.858159 70:-0.82585 71:-0.148951 72:-1 73:-0.938536 74:-0.755722 75:-0.777788 76:-1 77:-0.361714 78:-1 79:-1 80:-0.813241 81:-0.439722 82:-1 83:-0.262441 84:-1 85:-1 86:-1 87:-0.815608 88:-0.673774 89:-0.442091 90:-1 91:0.0212398 92:-1 93:-0.721045 94:-1 95:-0.47046 96:-1 97:-0.683216 98:-1 99:0.210368 100:-0.683216 101:-0.697408 102:-1 103:-0.666678 104:-1 105:-0.862889 106:-0.754147 107:-0.858159 108:-0.754147 109:0.209207 110:-1 111:-0.276622 112:-1 113:-1 114:-0.673766 115:-0.755722 116:-0.858159 117:-1 118:-0.47046 119:-0.938536 120:-0.732079 121:-1 122:-0.508294 123:-0.0922095 124:-1 125:-1 126:-0.908592 127:-0.716317 128:-0.319124 129:-1 130:-1 131:-0.798272 132:0.394773 133:-0.914896 134:-0.886528 135:0.295431 136:-0.880225 137:-0.186791 138:-0.56881 139:-0.8227 140:-1 141:-1 142:0.166661 143:-1 144:-0.516169 145:-0.92908 146:-0.659587 147:0.109534 148:-1 149:-0.394816 150:-0.782511 151:-1 152:-0.3696 153:-1 154:-0.508294 155:-1 156:-1 157:-0.498834 158:-1 159:-0.886529 160:-0.938536 161:-0.659587 162:-1 163:-1 164:-0.186441 165:-1 166:-0.45154 167:-0.656882 168:-0.791018 169:-0.782511 170:-0.853432 171:-0.574476 172:-1 173:-1 174:-0.157219 175:-0.891257 176:-0.180447 177:-0.780797 178:-0.508294 179:-1 180:-0.683216 181:-0.366432 182:-0.858159 183:-1 184:-0.825792 185:-0.716317 186:-0.936172 187:-1 188:-0.508294 189:-0.813241 190:-0.366432 191:-1 192:-1 193:-0.0354957 194:0.248152 195:-1 196:-0.72577 197:-1 198:-1 199:-0.456277 200:-1 201:-0.583949 202:-0.807633 203:-1 204:-1 205:-0.560309 206:-0.744688 207:-0.938536 208:-0.860186 209:-1 210:-1 211:-0.659587 212:-0.841613 213:-0.683216 214:-0.432634 215:-0.782511 216:-0.670293 217:0.134765 218:-0.782511 219:-0.574476 220:-0.683227 221:-0.749974 222:-0.423168 223:-0.782513 224:-0.398422 225:-0.938536 226:-1 227:-1 228:-0.611568 229:-0.80615 230:-1 231:-0.633574 232:-0.744688 233:-0.565021 234:-0.891255 235:-0.754147 236:-0.697408 237:-0.744688 238:-0.626481 239:-1 240:-1 241:-1 242:-0.829793 243:-1 244:-0.63122 245:-0.683216 246:-0.782511 247:-0.62176 248:-1 249:-1 250:-0.604027 251:0.340389 252:-0.782511 253:-1 254:-0.366432 255:-0.560288 256:-0.782511 257:-0.721045 258:-0.41845 259:-1 260:-0.2246 261:-1 262:-1 263:-1 264:-0.780144 265:-1 266:-0.565003 267:-0.508294 268:-0.716317 269:-0.697408 270:-1 271:0.361653 272:-1 273:-0.319173 274:-0.266237 275:-1 276:-0.451556 277:-0.948667 278:-0.787238 279:-1 280:-1 281:-0.815608 282:-0.873836 283:-0.683227 284:-0.725778 285:0.0566937 286:-0.624135 287:-0.920569 288:-0.872344 289:-0.888216 290:-0.683216 291:-0.602845 292:-0.640675 293:-0.782511 294:-0.787238 295:-0.971632 296:-1 297:-0.680065 298:-1 299:-1 300:-0.848704 301:-1 302:-0.262441 303:-0.622349 304:-0.858159 305:-0.782511 306:-0.697408 307:-0.76045 308:0.174133 309:-0.716317 
-11.73002793951992 13.79496314173237 5.094071271119602 12.30950325117875 9.450716939054196 6.661427621531876 6.017314237971188 2.668371730460142 19.30387264955468 8.092176646005075 3.781922986770666 10.00173256713733 0:-1 1:-1 2:-1 3:-1 4:-1 5:-1 6:-1 7:-1 8:-1 9:-1 10:-1 11:0.393941 12:-1 13:-1 14:-1 15:-1 16:-1 17:-1 18:-1 19:1 20:-1 21:-1 22:-1 23:-1 24:-1 25:-1 26:-1 27:1 28:-1 29:-1 30:-1 31:-1 32:-1 33:-1 34:-1 35:-1 36:-1 37:-1 38:-1 39:0.394177 40:-1 41:-1 42:-1 43:-1 44:-1 45:-1 46:-1 47:-1 48:-1 49:-1 50:-1 51:-1 52:-1 53:-1 54:-1 55:-1 56:-1 57:-1 58:-1 59:-1 60:-1 61:-1 62:-1 63:-1 64:-1 65:-1 66:-1 67:-1 68:-1 69:-1 70:-1 71:-1 72:-1 73:-1 74:-1 75:-1 76:-1 77:-1 78:-1 79:-1 80:-1 81:-1 82:-1 83:-1 84:1 85:-1 86:-1 87:-1 88:-1 89:-1 90:-1 91:-1 92:-1 93:-1 94:-1 95:-1 96:-0.170374 97:-1 98:-1 99:-1 100:-1 101:-1 102:-1 103:-1 104:-1 105:-1 106:-1 107:-1 108:-1 109:-1 110:-1 111:-1 112:-1 113:-1 114:-1 115:-1 116:-1 117:-1 118:-1 119:-1 120:-1 121:-1 122:-1 123:-1 124:-1 125:-1 126:-1 127:-1 128:-1 129:-1 130:-1 131:-1 132:-1 133:-0.111114 134:-1 135:-1 136:-1 137:-1 138:-1 139:-1 140:-1 141:-1 142:-1 143:1 144:-1 145:-1 146:-1 147:-1 148:-1 149:-1 150:-1 151:-1 152:-1 153:-1 154:-1 155:-1 156:-1 157:-1 158:-1 159:-1 160:-1 161:-1 162:-1 163:-1 164:-1 165:-1 166:-1 167:-1 168:-1 169:-1 170:-1 171:-1 172:-1 173:-1 174:-1 175:-0.148154 176:-1 177:-1 178:-1 179:-1 180:-1 181:-1 182:-1 183:-1 184:-1 185:-1 186:1 187:-1 188:-1 189:-1 190:-1 191:-1 192:-1 193:-1 194:-1 195:-1 196:-1 197:-1 198:-1 199:0.703712 200:-1 201:-1 202:-1 203:-1 204:-1 205:-1 206:1 207:-1 208:-1 209:-1 210:-1 211:-1 212:-1 213:-1 214:-1 215:0.703712 216:-1 217:-1 218:-1 219:-1 220:-1 221:-1 222:-1 223:-1 224:-1 225:-1 226:-1 227:-1 228:-1 229:-1 230:1 231:-1 232:1 233:-1 234:-1 235:-1 236:-1 237:1 238:-1 239:-1 240:1 241:-1 242:-1 243:-1 244:-1 245:-1 246:-1 247:-1 248:-1 249:-1 250:-1 251:-1 252:-1 253:-1 254:-1 255:-1 256:-1 257:-1 258:-1 259:-1 260:-1 261:-1 262:-1 263:0.709413 264:-1 265:-1 266:-1 267:-1 268:-1 269:-1 270:-1 271:-1 272:-1 273:-1 274:-1 275:0.703712 276:-1 277:-1 278:-1 279:-1 280:1 281:-1 282:-1 283:-1 284:-1 285:-1 286:-1 287:0.244446 288:1 289:-1 290:-1 291:-1 292:-1 293:-1 294:-1 295:-1 296:-1 297:-1 298:-1 299:-1 300:-1 301:1 302:-1 303:-1 304:-1 305:-1 306:-1 307:-1 308:-1 309:-1 
-20.05505017306147 8.831863292192871 2.630129755851425 8.126629047825867 0 2.644336264718933 14.31835809452164 0.086159953598293 7.01567097535098 0.1611894446801073 0 6.149270834444602 0:-1 1:1 2:-1 3:-1 4:0.540913 5:-1 6:-1 7:-1 8:-0.0164102 9:-0.803284 10:-1 11:0.233986 12:-1 13:-1 14:-1 15:-0.245903 16:-1 17:-1 18:-1 19:-0.114777 20:-1 21:-1 22:0.475385 23:-1 24:-1 25:-1 26:-1 27:-0.114777 28:-1 29:-0.748641 30:-1 31:-1 32:-1 33:-1 34:-1 35:-1 36:-1 37:-1 38:-0.967214 39:0.234195 40:-1 41:0.78836 42:-1 43:-1 44:-1 45:-1 46:-1 47:-1 48:-1 49:-1 50:-1 51:-1 52:-1 53:-1 54:-1 55:-1 56:0.680299 57:-1 58:-1 59:-1 60:-1 61:-1 62:-1 63:-1 64:-1 65:-1 66:-1 67:-1 68:-1 69:-1 70:-1 71:-1 72:-1 73:-1 74:-1 75:-1 76:-1 77:-1 78:-1 79:-1 80:-1 81:-1 82:-1 83:-1 84:-0.114777 85:-1 86:-1 87:-1 88:-1 89:-1 90:0.154071 91:-1 92:-1 93:-1 94:-1 95:-1 96:-0.632798 97:-1 98:-1 99:-1 100:-1 101:-1 102:-1 103:-1 104:-1 105:-0.0492127 106:-1 107:-1 108:0.704852 109:-1 110:-1 111:-1 112:0.29507 113:-1 114:-1 115:-1 116:-1 117:-1 118:-1 119:-0.573782 120:0.85788 121:-1 122:-1 123:-1 124:-1 125:-1 126:0.267767 127:-1 128:-1 129:-1 130:-1 131:-1 132:-1 133:-0.606557 134:-1 135:-1 136:-1 137:-1 138:-1 139:-1 140:-1 141:-1 142:-1 143:-0.114777 144:-1 145:-1 146:-1 147:-1 148:-1 149:-1 150:-1 151:-1 152:-1 153:-1 154:-1 155:-1 156:-1 157:-1 158:-1 159:-1 160:-1 161:-1 162:-1 163:-1 164:-1 165:-1 166:-1 167:-1 168:-1 169:-1 170:-1 171:-1 172:-1 173:-1 174:-1 175:-0.622963 176:-1 177:-1 178:0.704852 179:-1 180:-1 181:-1 182:-1 183:-1 184:-1 185:-0.0164102 186:-0.11475 187:-1 188:-1 189:-1 190:-1 191:-1 192:-1 193:-1 194:-1 195:-1 196:-1 197:-1 198:-1 199:-1 200:-1 201:-1 202:-1 203:-1 204:-1 205:-1 206:-0.114777 207:-1 208:-1 209:-1 210:-1 211:-1 212:-1 213:-1 214:-0.0164102 215:-0.245917 216:-1 217:-1 218:-1 219:-1 220:-1 221:-1 222:1 223:-0.622963 224:0.390534 225:-0.147537 226:-1 227:-1 228:-1 229:-1 230:0.7705 231:-1 232:0.7705 233:0.508165 234:-1 235:-1 236:-1 237:-0.114777 238:-1 239:-1 240:-0.114777 241:-1 242:-1 243:-1 244:-1 245:-1 246:-1 247:-1 248:-1 249:-1 250:-1 251:-1 252:-1 253:-1 254:-1 255:-1 256:-1 257:-1 258:-1 259:-1 260:-1 261:-1 262:-1 263:0.513258 264:-1 265:-1 266:-1 267:-1 268:-1 269:-1 270:-1 271:-1 272:-1 273:-1 274:-1 275:-1 276:-1 277:-1 278:-1 279:-1 280:-0.114777 281:-1 282:-1 283:-1 284:-1 285:-1 286:-1 287:-0.265569 288:0.7705 289:-1 290:-1 291:-0.0819847 292:-1 293:-1 294:-1 295:-1 296:-1 297:-1 298:-1 299:-1 300:-1 301:-0.114777 302:-1 303:-1 304:-1 305:-1 306:-1 307:-1 308:-1 309:-1 
-24.5003495643843 1.52540426063492 9.444150867930809 9.606125542744666 2.86793853628944 6.523753521635652 14.69879100032234 3.936822531181871 10.41130076860502 4.190348764014809 2.726355741143037 6.710141254614893 0:-1 1:-1 2:-0.52484 3:-1 4:1 5:-1 6:-1 7:0.290745 8:-0.574476 9:-0.829792 10:-1 11:-0.19921 12:-1 13:-1 14:-1 15:-0.510632 16:-0.914896 17:-1 18:-1 19:0.148959 20:-1 21:-1 22:-0.361714 23:-1 24:-1 25:0.115796 26:-1 27:-1 28:-1 29:-0.782512 30:-1 31:-1 32:-1 33:-1 34:-0.29552 35:-1 36:-0.16785 37:-0.0212521 38:-0.985816 39:-0.733037 40:-1 41:-1 42:-1 43:-1 44:-1 45:-1 46:-1 47:0.0212398 48:-1 49:-1 50:-0.818445 51:-1 52:-1 53:-0.16785 54:-1 55:-1 56:-1 57:-1 58:-0.361714 59:-1 60:-1 61:-1 62:-0.17731 63:-1 64:-1 65:-1 66:-0.262441 67:-1 68:-1 69:-1 70:-1 71:-1 72:-1 73:-1 74:-1 75:1 76:0.191432 77:-0.361714 78:-1 79:-1 80:-1 81:-1 82:-1 83:-0.262441 84:-0.234063 85:-1 86:-1 87:-0.815608 88:-1 89:-1 90:-1 91:0.0212398 92:-1 93:-0.163136 94:-1 95:-1 96:-1 97:-1 98:-1 99:-1 100:-1 101:-1 102:-1 103:0.500018 104:-0.262441 105:0.64539 106:-1 107:-1 108:-1 109:0.209207 110:-1 111:-1 112:-1 113:-0.451551 114:-1 115:-1 116:-1 117:-1 118:-1 119:-1 120:-0.196237 121:-1 122:-1 123:-1 124:-1 125:-0.574482 126:-0.725775 127:-1 128:-1 129:-1 130:-1 131:-0.394816 132:-0.163136 133:-0.829792 134:-1 135:-0.0284266 136:-0.640675 137:-0.390093 138:-1 139:-1 140:-1 141:-1 142:1 143:-1 144:-1 145:-1 146:-1 147:-1 148:-1 149:-1 150:-1 151:-0.451551 152:-1 153:-1 154:-0.262441 155:-1 156:-1 157:-1 158:-1 159:-1 160:-1 161:0.0212398 162:-1 163:-1 164:-1 165:-1 166:-1 167:0.544105 168:-0.373055 169:-1 170:-1 171:-0.574476 172:-1 173:-1 174:-1 175:-1 176:-1 177:-1 178:-1 179:-1 180:-0.0496482 181:-1 182:-1 183:-1 184:-1 185:-1 186:-1 187:-1 188:-1 189:-1 190:-1 191:-1 192:-0.673766 193:-1 194:-1 195:-1 196:-0.17731 197:-1 198:-0.673766 199:-1 200:-1 201:-1 202:-0.422899 203:-1 204:-1 205:-1 206:-1 207:-1 208:-0.440724 209:-1 210:-1 211:0.0212398 212:-1 213:-1 214:-0.574476 215:-1 216:-1 217:-1 218:-1 219:-1 220:-0.52484 221:-1 222:-1 223:-0.67377 224:-1 225:-1 226:-1 227:-1 228:-1 229:-1 230:-0.617032 231:-1 232:-1 233:0.957496 234:-1 235:-1 236:-1 237:-0.617032 238:-1 239:-1 240:0.148959 241:-0.673766 242:-1 243:-1 244:-1 245:-1 246:-1 247:0.13472 248:-1 249:-0.815608 250:-1 251:-1 252:-1 253:-1 254:-0.0496482 255:-1 256:-0.673766 257:-1 258:-1 259:-1 260:-1 261:-1 262:-1 263:-1 264:-0.340432 265:-1 266:-1 267:-1 268:-1 269:-1 270:-1 271:-1 272:-1 273:-1 274:-1 275:-1 276:0.234057 277:-1 278:-1 279:0.120556 280:-1 281:-0.0780131 282:-1 283:-0.52484 284:-1 285:-1 286:-1 287:-0.682266 288:-1 289:-1 290:-1 291:-1 292:-1 293:-0.347532 294:-0.361714 295:-0.829792 296:-1 297:-1 298:-1 299:-1 300:-0.092224 301:-1 302:-0.262441 303:-1 304:-1 305:-1 306:-1 307:-1 308:-1 309:-0.574476 
-22.24459117016863 24.02151302578323 10.82838141448679 27.44067387251402 26.61413166769242 20.88510451920428 28.88931330919322 31.35761486368475 17.69171733168968 12.33568894414058 32.68097301375264 31.72762204029985 0:-0.786819 1:-0.765388 2:-0.61348 3:-0.909367 4:-0.819241 5:-0.853853 6:-1 7:-0.47502 8:-0.884619 9:-0.976924 10:-0.646166 11:-0.565751 12:-0.0769231 13:-1 14:-1 15:-0.734627 16:-0.953848 17:-1 18:-0.742312 19:-0.584632 20:-0.830004 21:-0.719781 22:-0.653857 23:-1 24:-1 25:-0.697451 26:-0.469249 27:-1 28:-1 29:-0.793583 30:-0.358599 31:-0.362665 32:-1 33:-1 34:-1 35:-0.805256 36:-0.323086 37:-0.734624 38:-0.988462 39:-0.855226 40:-1 41:-0.790214 42:-0.415413 43:-1 44:-1 45:-0.80898 46:-0.107708 47:0.107639 48:-0.526937 49:-0.642321 50:-0.753856 51:-0.911541 52:-1 53:-1 54:-0.80001 55:-0.861545 56:-0.802891 57:-0.884619 58:-0.480785 59:0.07116 60:-0.821158 61:-0.849117 62:-0.553854 63:-0.769714 64:-1 65:-0.753856 66:-5.19994e-05 67:-0.538475 68:-1 69:-0.653857 70:-0.716675 71:0.0384304 72:-0.39864 73:-0.900004 74:-0.801292 75:-1 76:-1 77:-0.480785 78:-1 79:-0.226935 80:-0.84808 81:-0.696161 82:-0.736557 83:-0.400031 84:-0.896158 85:-1 86:-1 87:-0.950002 88:0.061478 89:-0.773084 90:-0.86462 91:-0.72309 92:-1 93:-0.0923358 94:-1 95:-0.784622 96:-1 97:-0.484623 98:-0.353867 99:-0.753856 100:-1 101:-0.507712 102:-0.353867 103:-0.864429 104:-0.80001 105:-0.888467 106:-0.900005 107:-0.538475 108:-0.400031 109:-0.672123 110:-1 111:-0.607711 112:-0.84808 113:-1 114:-0.469249 115:-1 116:-0.769238 117:-0.473115 118:-0.784622 119:-0.850006 120:-0.346178 121:-0.852754 122:-1 123:-1 124:-0.824368 125:-0.769241 126:-0.776931 127:-0.769238 128:0.107719 129:-0.676942 130:-1 131:-0.753856 132:-1 133:-0.930772 134:-0.907696 135:-0.736557 136:-0.707706 137:-1 138:-1 139:-0.913465 140:-1 141:-1 142:-0.457683 143:-0.688474 144:-0.606427 145:-0.94231 146:-0.72309 147:0.353828 148:-0.884619 149:-0.753856 150:-1 151:-0.925644 152:-0.4872 153:-0.734624 154:-0.200042 155:-0.664427 156:-0.853853 157:-0.592326 158:-1 159:-0.907697 160:-1 161:-0.169271 162:-0.917952 163:-1 164:-1 165:-0.526937 166:-0.553854 167:-1 168:-0.830004 169:-0.734624 170:-1 171:-0.538475 172:-0.911541 173:-0.392321 174:-1 175:-0.955771 176:-0.333333 177:-0.465066 178:0.400031 179:-1 180:0.803953 181:-1 182:-0.884619 183:-0.226935 184:-1 185:-1 186:-0.896158 187:-1 188:-0.600021 189:-0.544241 190:-0.484623 191:-0.605781 192:-0.911541 193:-1 194:-0.323126 195:-0.38464 196:-0.330781 197:-0.784622 198:-1 199:-0.911541 200:-0.600021 201:-1 202:-1 203:-0.355995 204:-1 205:-0.284665 206:-0.896158 207:-0.850006 208:-0.848357 209:-1 210:-0.884619 211:-1 212:-0.74232 213:-0.226935 214:-1 215:-0.911541 216:-0.731799 217:-0.0769231 218:-1 219:-0.307713 220:-0.87116 221:-0.796616 222:-0.296163 223:-0.867314 224:-0.510646 225:-1 226:-0.736557 227:-1 228:-0.368058 229:-1 230:-0.896158 231:-0.105789 232:-1 233:0.0615024 234:-0.911541 235:-1 236:-0.753856 237:-1 238:0.215358 239:-1 240:-1 241:-0.911541 242:-0.861545 243:-0.538475 244:-0.80001 245:-1 246:-0.911541 247:-0.84616 248:-1 249:-0.700012 250:-0.871158 251:-0.636553 252:-0.646166 253:-0.203892 254:-1 255:-0.463474 256:-0.911541 257:-1 258:-0.290406 259:-0.734624 260:-0.684625 261:-1 262:-1 263:-1 264:-0.463474 265:-0.862027 266:-0.911542 267:0.400031 268:-0.884619 269:-0.507712 270:-0.823083 271:0.107639 272:-1 273:-0.72309 274:-0.104679 275:-1 276:-0.776934 277:-0.916487 278:-0.653857 279:-0.696161 280:-0.896158 281:-0.499993 282:-0.897372 283:-0.74232 284:-1 285:-0.426954 286:-1 287:-0.956925 288:-0.688474 289:-0.909069 290:-0.742312 291:-0.784622 292:-0.123119 293:-1 294:-1 295:-0.930772 296:-1 297:0.0410069 298:-1 299:-0.80001 300:-0.753856 301:-0.792316 302:-0.80001 303:-1 304:-0.884619 305:-1 306:-1 307:-0.902569 308:0.146121 309:-1 
-3.829864778405618 0 0 0 0 0 0 0 3.600504596644887 0 0.1643250198491203 0.4147630186098512 0:-1 1:-1 2:-1 3:-1 4:-1 5:-1 6:-0.384611 7:1 8:-1 9:-1 10:-1 11:-0.172826 12:-1 13:-1 14:-1 15:-0.747254 16:-1 17:-1 18:-1 19:-0.406593 20:-1 21:-1 22:-0.0109801 23:-1 24:-1 25:-0.135541 26:-1 27:-1 28:-1 29:-0.663005 30:-1 31:-1 32:-1 33:-1 34:-1 35:-1 36:-1 37:-0.494503 38:-1 39:-0.586343 40:-1 41:-1 42:-1 43:-1 44:-1 45:0.0915864 46:-1 47:-1 48:-1 49:-1 50:-0.718682 51:-1 52:-1 53:-1 54:-1 55:-1 56:-1 57:-1 58:-1 59:-1 60:-1 61:-1 62:0.274752 63:-1 64:-1 65:-1 66:-1 67:-1 68:-1 69:-1 70:-1 71:-1 72:-1 73:-1 74:-1 75:-1 76:-1 77:-1 78:-1 79:-1 80:-1 81:-1 82:-1 83:0.142842 84:-0.406593 85:-1 86:-1 87:-1 88:0.516456 89:-1 90:-1 91:0.582403 92:-1 93:-1 94:-1 95:-1 96:-1 97:-1 98:-1 99:-1 100:-1 101:-1 102:-1 103:-0.225281 104:-1 105:0.274715 106:-1 107:-1 108:-1 109:-1 110:-1 111:-1 112:-1 113:0.274727 114:-1 115:-1 116:-1 117:-1 118:-1 119:-1 120:0.245424 121:-1 122:-1 123:-1 124:-1 125:-0.0109949 126:0.274727 127:-1 128:-1 129:-1 130:-1 131:-0.062272 132:0.296714 133:-1 134:-1 135:0.505446 136:-1 137:-1 138:-1 139:-0.835165 140:-1 141:-1 142:0.549438 143:-1 144:-1 145:-1 146:-1 147:-1 148:-1 149:-1 150:-1 151:0.274727 152:-1 153:-1 154:0.142842 155:-1 156:-1 157:-1 158:-1 159:-1 160:-1 161:0.582403 162:-1 163:-1 164:-1 165:-1 166:0.274752 167:-0.202511 168:-1 169:-0.494503 170:-1 171:-0.340653 172:-1 173:-1 174:-1 175:-1 176:-1 177:-1 178:-1 179:-1 180:-1 181:-1 182:-1 183:-1 184:-1 185:-1 186:-1 187:-1 188:-1 189:-1 190:-1 191:-1 192:-0.494503 193:-1 194:-1 195:-1 196:0.274752 197:-1 198:-1 199:-1 200:-1 201:-1 202:0.788429 203:-1 204:-1 205:-1 206:-1 207:-1 208:-0.350077 209:-1 210:0.318693 211:-1 212:-1 213:-1 214:-1 215:0.0109941 216:-1 217:-1 218:-1 219:-1 220:-0.263743 221:-1 222:-1 223:-1 224:-1 225:-1 226:-1 227:-1 228:-1 229:-1 230:-1 231:0.703325 232:-1 233:0.0109941 234:-0.494503 235:-1 236:-1 237:-0.406593 238:-1 239:-1 240:-0.406593 241:-1 242:-1 243:-1 244:-1 245:-1 246:-1 247:-0.12088 248:-1 249:-0.714286 250:-1 251:-1 252:-1 253:-1 254:-1 255:-1 256:-1 257:-1 258:-1 259:-1 260:-1 261:-1 262:-1 263:-1 264:0.0219949 265:-1 266:-0.747254 267:-1 268:-1 269:-1 270:-1 271:0.582403 272:-1 273:-1 274:-1 275:-1 276:0.274715 277:-1 278:-1 279:-1 280:-0.406593 281:-0.142857 282:-1 283:-1 284:0.912073 285:-1 286:-1 287:-1 288:-0.406593 289:-1 290:-1 291:0.230778 292:-1 293:-0.494503 294:-0.0109801 295:-1 296:-1 297:-1 298:-1 299:-1 300:-0.296704 301:-0.406593 302:0.142842 303:-1 304:-1 305:-1 306:-1 307:-1 308:-1 309:-0.340653 
-21.44578701165594 15.47684610973418 2.225676359314951 17.77795704796698 15.6528383935457 22.28908896879581 2.355390535775316 0 8.035297029144392 0 8.661755577145984 0 0:-0.486725 1:-0.717562 2:-0.689793 3:-1 4:-0.564788 5:-1 6:-0.870359 7:0.0532351 8:-0.861099 9:-1 10:-0.574083 11:-0.477268 12:-0.444378 13:-1 14:-1 15:-0.733799 16:-0.916672 17:-1 18:-0.689782 19:-0.74998 20:-0.79535 21:-0.662659 22:-1 23:-1 24:-1 25:-0.635777 26:-1 27:-1 28:-1 29:-0.929007 30:-0.0348968 31:-1 32:-1 33:-1 34:-1 35:-1 36:-0.456732 37:-0.893509 38:-0.99074 39:-0.651465 40:-1 41:-0.74745 42:-1 43:-0.922447 44:-0.70368 45:-0.770041 46:-0.731454 47:-7.19994e-05 48:-0.430586 49:-1 50:-0.703706 51:-1 52:-1 53:-0.728366 54:-0.518486 55:-0.833321 56:-0.76271 57:-1 58:-0.583296 59:0.289514 60:-0.784701 61:-1 62:-0.194478 63:-0.168433 64:-1 65:-0.70368 66:-0.0370756 67:-0.583356 68:-1 69:-0.166652 70:-0.658919 71:-0.166592 72:-0.638027 73:-1 74:-1 75:-1 76:-0.805544 77:-0.375034 78:-1 79:-1 80:-1 81:-0.268526 82:-1 83:-0.759243 84:-0.87499 85:-1 86:-1 87:-1 88:-0.361071 89:-0.180601 90:-0.837023 91:-0.333285 92:-0.79535 93:-0.453655 94:-1 95:-0.481436 96:-1 97:-0.689782 98:-0.740718 99:-0.70368 100:-0.0694807 101:-0.70368 102:-0.740718 103:-0.673587 104:-0.759243 105:-1 106:-0.879621 107:-0.444454 108:-0.518486 109:-0.605286 110:-1 111:-0.763872 112:-0.817112 113:-1 114:-0.680574 115:-1 116:-0.722197 117:-0.36571 118:-1 119:-0.819456 120:-0.475265 121:-0.867072 122:-0.518486 123:-1 124:-0.788565 125:-0.791681 126:-0.820973 127:-0.722197 128:-1 129:-0.611088 130:-1 131:-0.604949 132:-0.726828 133:-1 134:-0.94444 135:-0.36571 136:-0.882708 137:-1 138:-0.788874 139:-0.89584 140:-0.430504 141:-1 142:-0.34721 143:-0.87499 144:-0.526197 145:-1 146:-1 147:-0.185216 148:-1 149:-1 150:-0.680574 151:-0.820973 152:-0.382667 153:-0.787019 154:-1 155:0.61574 156:-0.648123 157:-0.263939 158:-1 159:-1 160:-1 161:-0.666643 162:-0.901227 163:-0.683614 164:-1 165:-0.430504 166:-0.462908 167:-1 168:-1 169:-0.893509 170:-1 171:-0.861099 172:-1 173:-0.634223 174:-1 175:-1 176:-0.197435 177:-0.57068 178:0.203682 179:-1 180:-0.379564 181:-1 182:-1 183:-0.689782 184:-1 185:-1 186:-0.937495 187:-1 188:-0.759243 189:-0.817112 190:-0.379564 191:-0.288233 192:-0.893509 193:-1 194:-0.592573 195:-0.407424 196:-0.194478 197:-0.481436 198:-0.787019 199:-1 200:-0.518486 201:-0.592573 202:-1 203:-0.224715 204:-1 205:-1 206:-0.625024 207:-0.87962 208:-0.817465 209:-1 210:-1 211:-0.333285 212:-0.689793 213:0.240737 214:-1 215:-0.893509 216:-1 217:0.111244 218:-1 219:-0.583296 220:-0.844896 221:-1 222:-0.152809 223:-0.946755 224:-0.607261 225:-0.819456 226:-0.36571 227:-1 228:-0.619619 229:-0.810168 230:-0.87499 231:-0.282337 232:-0.74998 233:0.0648144 234:-0.893509 235:-1 236:-0.802453 237:-0.74998 238:0.462948 239:-0.805707 240:-1 241:-0.893509 242:-0.833321 243:-0.444454 244:-0.518538 245:-0.689782 246:-1 247:-0.8148 248:-1 249:-0.93981 250:-0.612268 251:-0.124929 252:-0.787019 253:-0.0417443 254:-0.379564 255:-0.784701 256:-1 257:-1 258:-1 259:-0.680574 260:-0.430586 261:-1 262:-1 263:-1 264:-0.784701 265:-1 266:-0.733799 267:0.444439 268:-0.861099 269:-0.111168 270:-0.787019 271:-0.666643 272:-1 273:-0.666643 274:-0.281446 275:-1 276:-0.462982 277:-1 278:-0.583296 279:-0.268447 280:-0.74998 281:-0.699076 282:-0.876451 283:-0.844896 284:-1 285:-0.310139 286:-1 287:-0.948144 288:-0.625024 289:-0.671647 290:-1 291:-0.870359 292:-0.296246 293:-1 294:-1 295:-0.94444 296:-1 297:-0.686696 298:-1 299:-0.518486 300:-0.70368 301:-0.87499 302:-0.759243 303:-0.815088 304:-0.861099 305:-0.787019 306:-1 307:-0.882708 308:0.379656 309:-1 
-25.54254881232432 15.80433369634399 3.227447510069451 10.3764034825373 3.103359553406984 7.428545146863144 29.6856998848018 1.327536578411129 26.85843234731804 5.923571479878234 0 13.99147205353359 0:-1 1:-1 2:-1 3:-1 4:-1 5:-1 6:-1 7:-1 8:-1 9:-0.826084 10:-1 11:0.0909296 12:-1 13:-1 14:-1 15:1 16:-0.826084 17:-1 18:-1 19:-1 20:-1 21:-1 22:-1 23:-1 24:-1 25:0.140104 26:-1 27:-1 28:-1 29:-0.555549 30:-1 31:-1 32:-1 33:-1 34:0.439654 35:-1 36:-1 37:-1 38:-0.884058 39:0.636634 40:-1 41:-1 42:-1 43:-0.51448 44:-1 45:-1 46:-1 47:-1 48:-1 49:-1 50:-1 51:-0.333318 52:-1 53:-1 54:-1 55:0.0434877 56:-1 57:-1 58:-1 59:-1 60:-1 61:-1 62:-1 63:-1 64:-1 65:-1 66:-1 67:-1 68:-1 69:-1 70:-1 71:-1 72:-1 73:-1 74:-1 75:0.362316 76:-1 77:-1 78:-1 79:-1 80:-1 81:-1 82:-1 83:-1 84:-1 85:-1 86:-1 87:-0.623182 88:1 89:-1 90:-1 91:-1 92:-1 93:0.710189 94:-1 95:0.623229 96:-1 97:-1 98:-1 99:-1 100:-1 101:-1 102:-1 103:-1 104:-1 105:-1 106:-0.246373 107:-0.130411 108:-1 109:-1 110:-1 111:-1 112:-1 113:-1 114:-0.333318 115:-1 116:-1 117:-1 118:-1 119:-1 120:-1 121:-1 122:-1 123:-1 124:-1 125:0.304333 126:-1 127:-0.130411 128:-1 129:-1 130:-1 131:-1 132:-1 133:-0.826084 134:-1 135:-1 136:-1 137:-1 138:-1 139:-1 140:0.782657 141:-1 142:0.0217491 143:-1 144:-1 145:-0.130424 146:-1 147:-1 148:-1 149:-1 150:-1 151:-1 152:-1 153:-1 154:-1 155:-1 156:-1 157:-1 158:-1 159:-1 160:-1 161:-1 162:-1 163:-1 164:-1 165:-1 166:-1 167:-1 168:-1 169:-1 170:-1 171:0.739177 172:-1 173:-1 174:-1 175:-1 176:-1 177:-1 178:-1 179:-1 180:-1 181:-1 182:-1 183:-1 184:-1 185:-1 186:-1 187:-1 188:-1 189:0.144968 190:-1 191:0.485547 192:-1 193:-1 194:-1 195:-1 196:-1 197:-1 198:-1 199:0.333364 200:-1 201:-1 202:-1 203:-1 204:-1 205:-1 206:-1 207:-1 208:1 209:-1 210:-1 211:-1 212:-1 213:-1 214:-0.130411 215:-0.333318 216:-1 217:-1 218:-1 219:-1 220:-0.0289773 221:-1 222:-1 223:-1 224:-1 225:-0.246363 226:-1 227:-1 228:-1 229:-1 230:-1 231:-1 232:-1 233:0.333364 234:-1 235:-1 236:-1 237:-1 238:-1 239:-1 240:-1 241:-1 242:-1 243:-1 244:-1 245:-1 246:-1 247:-1 248:-1 249:-0.623182 250:-0.51448 251:-1 252:-1 253:1 254:-1 255:-1 256:-1 257:-1 258:-1 259:-0.333318 260:-1 261:-1 262:-1 263:-1 264:-1 265:-1 266:-0.666663 267:-1 268:-1 269:-1 270:-1 271:-1 272:-1 273:-1 274:-1 275:-0.333318 276:-1 277:-1 278:-1 279:-1 280:-1 281:-1 282:-1 283:-1 284:-1 285:-1 286:-1 287:-1 288:-0.217377 289:-1 290:-1 291:-1 292:-1 293:-1 294:-1 295:-1 296:-1 297:-1 298:-1 299:-1 300:-1 301:-0.217377 302:-1 303:-1 304:-1 305:-1 306:-1 307:-1 308:-1 309:-1 
-0 -0 0 1.838814936053807 0 0 0 0 0 0 0 0 0:-1 1:-0.186604 2:-0.776691 3:-1 4:-1 5:-0.746694 6:0.400011 7:-0.696697 8:-0.800018 9:-0.979996 10:-0.693316 11:-1 12:-1 13:-0.769999 14:-1 15:-0.808342 16:-0.660005 17:-1 18:-0.329983 19:-1 20:-1 21:-1 22:-1 23:-1 24:-1 25:-1 26:-0.386632 27:-0.909982 28:-0.957769 29:-0.74444 30:-1 31:-0.447676 32:-0.448337 33:-1 34:-0.834409 35:-1 36:-0.8044 37:-0.61668 38:-0.93 39:0.442962 40:-1 41:1 42:-1 43:-1 44:-1 45:-0.834409 46:-1 47:-1 48:-0.863305 49:-0.896646 50:-0.957325 51:-0.923318 52:-1 53:-1 54:-1 55:-0.400029 56:-1 57:-1 58:-0.849968 59:-0.071717 60:-0.844966 61:-0.738486 62:-1 63:-0.800371 64:-1 65:-1 66:-0.653372 67:-0.800018 68:-0.923318 69:-1 70:-0.877196 71:-0.699937 72:-1 73:-0.956658 74:-0.655593 75:-0.843305 76:-0.720034 77:-1 78:-0.736688 79:-0.776616 80:-1 81:-0.868305 82:-0.771628 83:0.386615 84:-0.909982 85:-1 86:-0.746694 87:-0.87 88:-0.540054 89:-0.606702 90:-0.882643 91:-1 92:-0.852634 93:-1 94:-1 95:-1 96:-0.925341 97:-0.553367 98:-1 99:-0.786624 100:-1 101:-1 102:-0.439996 103:-1 104:-0.653372 105:-1 106:-1 107:-0.200012 108:-1 109:-0.715772 110:-1 111:-0.829967 112:-1 113:-0.806666 114:-1 115:-1 116:-1 117:-0.771628 118:-0.813295 119:-0.956658 120:-0.622259 121:-1 122:0.213353 123:-0.0399846 124:-1 125:-0.250004 126:-0.935542 127:-0.599976 128:-0.519873 129:0.399916 130:-1 131:-0.857792 132:-1 133:-0.76 134:-0.94 135:-1 136:-0.915539 137:-0.713364 138:-0.696033 139:-0.875005 140:-0.794957 141:-1 142:-1 143:-1 144:-0.658821 145:-0.850001 146:-0.759954 147:-0.8044 148:-1 149:-1 150:-1 151:-0.742209 152:-0.777733 153:-0.923318 154:-0.826634 155:-1 156:-1 157:-1 158:-0.789958 159:-1 160:-0.956658 161:-1 162:-0.928875 163:-1 164:-1 165:-0.589914 166:-0.419987 167:-1 168:-1 169:-0.923318 170:-1 171:-0.899979 172:-1 173:-1 174:-0.405882 175:-0.84666 176:-0.711042 177:-1 178:-0.826634 179:-1 180:-1 181:-1 182:-1 183:-0.329983 184:-0.508696 185:-0.099991 186:-0.819991 187:-0.50339 188:-1 189:-1 190:-0.329983 191:-1 192:-1 193:-1 194:-0.706617 195:-0.68 196:-1 197:-0.439996 198:-1 199:-0.61668 200:-1 201:-1 202:-0.728782 203:-0.441896 204:-1 205:-1 206:-0.909982 207:-0.956658 208:-0.802857 209:-0.863305 210:-0.699997 211:-1 212:-0.776691 213:-0.776616 214:-0.699997 215:-0.61668 216:-1 217:-1 218:-0.923318 219:-1 220:-1 221:-1 222:-0.796621 223:-0.425003 224:-1 225:0.126659 226:-1 227:-1 228:-1 229:-0.863305 230:-0.909982 231:-0.224986 232:-0.639982 233:-0.846635 234:-0.693316 235:-1 236:-1 237:-0.459999 238:-1 239:-1 240:-0.909982 241:-1 242:-1 243:-1 244:-0.913317 245:-0.329983 246:-0.923318 247:-1 248:-1 249:-0.783342 250:-0.609152 251:-1 252:-0.846681 253:-1 254:-0.329983 255:-0.534992 256:-0.769999 257:-1 258:-1 259:-0.769999 260:-1 261:-1 262:-1 263:1 264:-0.690026 265:-0.760861 266:-0.808342 267:-0.826634 268:-0.699997 269:-0.786624 270:-1 271:-1 272:-0.882771 273:-1 274:-0.482735 275:-0.61668 276:-0.420004 277:-0.963802 278:-1 279:-1 280:-0.73 281:-0.913342 282:-1 283:-0.441694 284:-0.420004 285:-0.75162 286:-1 287:-0.944 288:-0.909982 289:-0.763571 290:-1 291:-1 292:-0.746618 293:-0.923318 294:-0.849968 295:-0.94 296:-1 297:-0.323318 298:-0.632131 299:-0.30664 300:-0.68 301:-0.820018 302:-0.480006 303:0.73066 304:-1 305:-0.846635 306:-0.786624 307:-0.915539 308:-1 309:-1 
-100.3680008241998 -82.44594650184402 41.08834947674704 128 128 83.36441513486855 77.96434120423888 50.6385102316051 62.69396759042497 37.01813933633555 68.23829118584131 97.79724127452845 0:-0.676958 1:-0.431221 2:-0.726709 3:-0.862661 4:-1 5:-0.73423 6:-0.575741 7:-0.681773 8:-0.615396 9:-0.986008 10:-0.651502 11:-0.912269 12:-0.720149 13:-0.73191 14:-0.86363 15:-0.959796 16:-0.965032 17:-0.425643 18:-0.219028 19:-0.874126 20:-0.742397 21:-0.915046 22:-0.895059 23:-0.884632 24:-0.769789 25:-0.908276 26:-0.73191 27:-0.496503 28:-0.985231 29:-0.865972 30:-0.757015 31:-0.806778 32:-0.421305 33:-1 34:-0.652627 35:-0.822978 36:-0.726489 37:-0.812365 38:-0.967366 39:-0.75871 40:-0.812365 41:-0.55501 42:-0.557076 43:-0.90238 44:-0.776256 45:-0.710539 46:-0.797228 47:-0.832097 48:-0.76105 49:-0.891624 50:-0.820979 51:-0.812365 52:-1 53:-0.589674 54:-0.636316 55:-0.622363 56:-0.641554 57:-0.930039 58:-0.685267 59:0.298426 60:-0.783213 61:-0.497058 62:-0.729598 63:-0.930184 64:-0.884566 65:-0.627008 66:-0.757579 67:-0.650317 68:-0.946364 69:-0.650317 70:-0.742385 71:-0.370534 72:-0.635525 73:-0.878788 74:-0.759132 75:-0.78089 76:-0.0209996 77:-0.895059 78:-0.401485 79:-0.609514 80:-0.677753 81:-0.861906 82:-0.520926 83:-0.757579 84:-0.874126 85:-0.950737 86:-0.955692 87:-0.939394 88:-0.75878 89:-0.793734 90:-0.835897 91:-0.74829 92:-0.536333 93:-0.58735 94:-1 95:-0.804222 96:-0.869453 97:-0.765762 98:-0.869407 99:-0.776256 100:-0.687638 101:-0.925376 102:-0.151481 103:-0.917798 104:-0.757579 105:-0.797175 106:-0.848474 107:-0.755258 108:-0.757579 109:-0.205115 110:-1 111:-0.881069 112:-0.815848 113:-0.752146 114:-0.865955 115:-0.698889 116:-0.825158 117:-0.441195 118:-0.477852 119:-0.848472 120:-0.339491 121:-0.933058 122:-0.636316 123:-0.664283 124:-0.946753 125:-0.685302 126:-0.954915 127:-0.510455 128:-0.496544 129:-0.706342 130:-1 131:-0.726507 132:-0.862411 133:-0.909088 134:-0.916084 135:-0.840263 136:-0.82282 137:-0.799536 138:-0.681076 139:-0.97378 140:-0.784994 141:-0.973182 142:-0.917833 143:-0.71677 144:-0.761359 145:-0.825161 146:0.174887 147:-0.589674 148:-0.930039 149:-0.627008 150:-0.839137 151:-0.707061 152:-0.456133 153:-0.892773 154:-0.575789 155:-0.491493 156:-0.557076 157:-0.629319 158:-0.632836 159:-0.692322 160:-0.924236 161:-0.74829 162:-0.825963 163:-0.681427 164:-0.699217 165:0.00344403 166:-0.797228 167:-0.830836 168:-0.896924 169:-0.651502 170:-0.963854 171:-0.755258 172:-1 173:-0.631695 174:-0.168984 175:-0.852571 176:-0.191888 177:-0.945941 178:-0.757579 179:-0.960356 180:-0.843752 181:-0.375276 182:-0.860139 183:-0.609514 184:-0.570523 185:-0.475535 186:-0.811189 187:-0.652686 188:-0.878737 189:-0.493601 190:-0.375276 191:-0.641554 192:-0.892773 193:-0.762138 194:-0.179514 195:-0.925376 196:-0.797228 197:-0.869407 198:-0.973182 199:-0.758729 200:-0.81821 201:-0.897395 202:-0.668077 203:-0.804756 204:-0.726837 205:-0.566447 206:-0.842644 207:-0.924236 208:-0.954046 209:-0.808856 210:-0.790178 211:-0.412629 212:-0.960939 213:-0.375276 214:-0.930039 215:-0.865955 216:-1 217:-0.580463 218:-0.919592 219:-0.947529 220:-1 221:-1 222:-0.857744 223:-0.892775 224:-0.851726 225:-0.72726 226:-0.840263 227:-0.832085 228:-0.521196 229:-0.665519 230:-0.779734 231:-0.457956 232:-0.748252 233:-0.73191 234:-0.624684 235:-0.81821 236:-0.875669 237:-0.496503 238:-0.631695 239:-1 240:-0.937036 241:-0.973182 242:-0.580387 243:-0.96502 244:-0.606053 245:-0.53139 246:-0.812365 247:-0.90672 248:-0.832145 249:-0.86363 250:-0.863352 251:-0.889813 252:-0.812365 253:-0.75878 254:-0.609514 255:-0.89156 256:-0.73191 257:-0.72494 258:-0.498278 259:-0.865955 260:-0.808856 261:-0.816153 262:-0.571714 263:-0.838599 264:-0.34964 265:-0.874583 266:-0.865957 267:-0.515158 268:-0.755258 269:-0.776256 270:-0.785547 271:-0.664339 272:-0.918013 273:-0.916049 274:-0.457283 275:-0.785547 276:-0.76342 277:-0.974681 278:-0.842678 279:-0.723811 280:-0.748252 281:-0.939394 282:-1 283:-0.726709 284:-0.695792 285:-1 286:-0.351459 287:-0.941256 288:-0.842644 289:-0.66933 290:-0.687638 291:-0.836815 292:-0.379997 293:-0.946364 294:-0.737737 295:-0.965032 296:-1 297:-0.763432 298:-0.228291 299:-0.515158 300:-0.813504 301:-0.937036 302:-0.515158 303:-0.720676 304:-0.790178 305:-0.73191 306:-0.403264 307:-0.881897 308:-0.826363 309:-1 
-23.54205139039227 -22.13350700640706 0 20.45842987485371 8.742774843818413 12.36894604124374 17.50116244751872 0 12.2442104782048 1.76016937137589 2.945471403402914 0 0:-0.775622 1:-0.506009 2:-0.593112 3:-0.904607 4:-0.429149 5:-1 6:-0.319819 7:-0.815816 8:-0.757058 9:-0.927124 10:-0.627536 11:-0.84761 12:-0.514221 13:-1 14:-1 15:-0.720644 16:-0.611333 17:-0.601064 18:-1 19:-0.890704 20:-0.821075 21:-1 22:-1 23:-0.866416 24:-1 25:-1 26:-0.813791 27:-0.890704 28:-1 29:-0.875846 30:-0.662372 31:-1 32:-1 33:-1 34:-1 35:-1 36:-0.524905 37:-0.813745 38:-0.939272 39:0.371591 40:-0.813745 41:0.104129 42:-1 43:-1 44:-0.740928 45:-0.798947 46:-1 47:-0.416949 48:-1 49:-1 50:-1 51:-0.72064 52:-1 53:-0.762511 54:-1 55:-0.417021 56:-0.792538 57:-0.878559 58:-1 59:0.127698 60:-0.623436 61:-1 62:-1 63:-1 64:-0.599248 65:-1 66:-0.789507 67:-0.878559 68:-0.906895 69:-0.635616 70:-0.403514 71:-1 72:-1 73:-0.842102 74:-0.372462 75:-1 76:-1 77:-0.635586 78:-1 79:-0.728777 80:-1 81:-1 82:-1 83:-0.578909 84:-0.562762 85:-1 86:-0.846177 87:-1 88:-1 89:-1 90:-0.714949 91:-1 92:-1 93:0.194289 94:-1 95:-0.546508 96:-0.954663 97:-1 98:-1 99:-0.740928 100:-0.45742 101:-0.740928 102:-0.319819 103:-0.857309 104:-0.789507 105:-1 106:-1 107:-0.635616 108:-1 109:-1 110:-1 111:-0.793554 112:-1 113:-1 114:-0.534431 115:-0.790855 116:-0.878559 117:-0.722721 118:-1 119:-1 120:-0.311724 121:-0.883746 122:-0.157922 123:0.360342 124:-0.630195 125:0.0931045 126:-1 127:-0.757058 128:-1 129:0.0202436 130:-0.728777 131:-0.654528 132:-1 133:-0.854248 134:-0.951412 135:-1 136:-0.897451 137:-0.651789 138:-0.446147 139:-0.848185 140:-0.751046 141:-1 142:-0.857274 143:-0.890704 144:-1 145:-0.696372 146:-1 147:-1 148:-1 149:-1 150:-1 151:-0.608654 152:-1 153:-1 154:-1 155:-0.646802 156:-1 157:-1 158:-1 159:-1 160:-0.947376 161:-1 162:-0.654528 163:-1 164:-1 165:-0.502091 166:-0.530306 167:-1 168:-1 169:-1 170:-1 171:-0.635616 172:-0.906895 173:-1 174:-1 175:-0.953448 176:0.0526954 177:-1 178:-1 179:-0.931185 180:-1 181:-0.728777 182:-1 183:-1 184:-0.701621 185:-0.271233 186:-0.836029 187:-0.698428 188:-1 189:-1 190:0.0850251 191:-0.792538 192:-0.72064 193:-1 194:-1 195:-1 196:-0.765211 197:-1 198:-1 199:-0.72064 200:-1 201:-1 202:-0.670518 203:-0.661085 204:-1 205:-1 206:-0.890704 207:-0.947376 208:-0.840373 209:-0.83403 210:-0.878559 211:-1 212:-0.728719 213:-0.728777 214:-0.635616 215:-0.813745 216:-1 217:-0.514221 218:-1 219:-1 220:-0.864393 221:-1 222:-1 223:-0.860322 224:-1 225:-0.210535 226:-0.722721 227:-1 228:-0.667433 229:-0.336039 230:-1 231:-0.372394 232:-1 233:-1 234:-1 235:-1 236:-0.913643 237:-0.672058 238:-1 239:-1 240:-0.890704 241:-1 242:-0.854273 243:-1 244:-1 245:-0.186198 246:-1 247:-1 248:-1 249:-0.894726 250:-0.660944 251:-1 252:-1 253:-0.720693 254:-0.45742 255:-1 256:-0.906895 257:-0.761166 258:-0.751046 259:-0.906895 260:-0.83403 261:-1 262:-1 263:0.494888 264:-0.0587305 265:-0.27383 266:-0.906874 267:-1 268:-0.635616 269:-0.481728 270:-0.906895 271:-0.708546 272:-0.857588 273:-1 274:0.256615 275:-0.627536 276:0.174086 277:-1 278:-0.817838 279:-0.680202 280:-0.890704 281:-0.947376 282:-1 283:0.356269 284:-0.412986 285:-1 286:-1 287:-0.909313 288:-1 289:-0.1385 290:-0.728777 291:-0.659909 292:-0.692354 293:-0.906895 294:-1 295:-0.927124 296:-1 297:-0.726079 298:-0.553349 299:-0.789507 300:-1 301:-0.344115 302:-0.789507 303:-0.353249 304:-0.878559 305:-0.441281 306:-1 307:-0.897451 308:-0.597795 309:-1 
-0 -0 0 0 0 0 0 0 1.324207797402786 8.850379304102304 0 7.568181800718887 0:-1 1:-0.744769 2:-0.859837 3:-0.901402 4:-0.606711 5:-1 6:-0.297082 7:-1 8:-0.748957 9:-0.924688 10:-0.711302 11:-0.921265 12:-1 13:-1 14:-1 15:-0.711306 16:-0.774064 17:-0.587661 18:-0.719665 19:-0.887032 20:-0.815064 21:-1 22:-1 23:-1 24:-1 25:-1 26:-0.807535 27:-0.887032 28:-1 29:-0.775459 30:-0.651115 31:-1 32:-0.0767364 33:-0.886295 34:-0.584385 35:-1 36:-0.754532 37:-0.903767 38:-0.920502 39:0.10252 40:-0.903767 41:-0.0871107 42:-1 43:-1 44:-0.732224 45:-1 46:-1 47:-0.698754 48:-1 49:-1 50:-1 51:-0.807535 52:-1 53:-0.754532 54:-1 55:-0.548132 56:-0.571136 57:-0.874479 58:-1 59:-0.417351 60:-0.805441 61:-0.835857 62:-1 63:-0.498952 64:-0.171567 65:-1 66:-1 67:-0.874479 68:-1 69:-0.497915 70:-0.38355 71:-1 72:-1 73:-0.836824 74:-0.567657 75:-1 76:-1 77:-0.811718 78:-0.834729 79:-0.719665 80:-1 81:-1 82:-1 83:-0.347304 84:-0.661096 85:-1 86:-0.841009 87:-1 88:-0.133927 89:-0.753142 90:-0.852723 91:-1 92:-1 93:-0.259425 94:-1 95:-0.765694 96:-0.953139 97:-1 98:-1 99:-0.464448 100:-1 101:-0.732224 102:-0.0627765 103:-0.852515 104:-1 105:-1 106:-1 107:-0.497915 108:-1 109:-1 110:-1 111:-0.786618 112:-1 113:-0.919109 114:-0.61507 115:-1 116:-0.623436 117:-1 118:-1 119:-0.945608 120:-0.288718 121:-0.959953 122:-0.347304 123:0.606682 124:-1 125:-0.0585747 126:-0.919109 127:-0.874479 128:-1 129:-0.297102 130:-0.719665 131:-0.910741 132:-1 133:-0.924688 134:-0.924688 135:-1 136:-1 137:-0.820089 138:0.144733 139:-0.90586 140:-0.742681 141:-1 142:-0.852515 143:-0.661096 144:-1 145:-0.748961 146:-0.397509 147:-1 148:-1 149:-1 150:-1 151:-0.271982 152:-1 153:-1 154:-1 155:-0.634936 156:-0.682019 157:-1 158:-1 159:-0.698754 160:-0.945608 161:-1 162:-0.821483 163:-1 164:-1 165:-0.485363 166:-0.757323 167:-1 168:-1 169:-0.903767 170:-1 171:-0.874479 172:-0.903767 173:-0.669458 174:-1 175:-0.951884 176:0.0878835 177:-1 178:-1 179:-1 180:-0.719665 181:-0.719665 182:-1 183:-1 184:-0.537509 185:-0.372394 186:-0.774064 187:-0.0648886 188:-1 189:-1 190:-0.158995 191:-0.356704 192:-0.807535 193:-1 194:-1 195:-1 196:-0.757323 197:-0.765694 198:-1 199:-0.326372 200:-1 201:-1 202:-0.659533 203:-0.299397 204:-1 205:-1 206:-1 207:-0.945608 208:-0.876273 209:-0.828454 210:-0.497915 211:-1 212:-0.859837 213:-1 214:-0.623436 215:-0.711302 216:-1 217:-1 218:-1 219:-1 220:-0.859837 221:-1 222:-0.744769 223:-0.807537 224:-1 225:-0.020917 226:-1 227:-1 228:-0.65626 229:-1 230:-0.887032 231:-0.351469 232:-1 233:-1 234:-1 235:-1 236:-1 237:-0.435159 238:-1 239:-1 240:-0.887032 241:-1 242:-0.849377 243:-1 244:-1 245:-0.719665 246:-0.903767 247:-1 248:-1 249:-0.836824 250:-0.789752 251:-1 252:-0.903767 253:-1 254:-0.43933 255:-0.805441 256:-0.903767 257:-0.753142 258:-0.742681 259:-0.807535 260:-0.828454 261:-1 262:-1 263:0.448365 264:-0.221762 265:-0.249507 266:-0.951884 267:-1 268:-0.748957 269:-0.196672 270:-0.903767 271:-0.698754 272:-0.852839 273:-1 274:-0.0259952 275:-0.807535 276:0.0920164 277:-1 278:-0.811718 279:-1 280:-0.887032 281:-0.945608 282:-1 283:0.401695 284:-0.75733 285:-1 286:-1 287:-0.953139 288:-0.887032 289:0.286032 290:-1 291:-0.765694 292:-0.364037 293:-0.903767 294:-1 295:-0.949792 296:-1 297:-0.716876 298:-0.538343 299:-0.782435 300:-1 301:-0.435159 302:-1 303:0.00259595 304:-1 305:-0.0376742 306:-1 307:-0.788012 308:-0.792192 309:-1 
-0 -0 0 0 13.7034569707258 0 0 0 0 0 0 0 0:-1 1:0.145611 2:-0.685438 3:-0.92624 4:-1 5:-0.762122 6:0.226914 7:-0.71517 8:-0.906099 9:-0.96244 10:-0.640048 11:-1 12:-0.624385 13:-0.784029 14:-0.95931 15:-0.784031 16:-0.680753 17:-1 18:-0.58057 19:-1 20:-1 21:-1 22:-1 23:-1 24:-0.84544 25:-1 26:-0.712038 27:-0.91549 28:-1 29:-0.688059 30:-1 31:-1 32:-0.481988 33:-1 34:-0.689083 35:-1 36:-0.816368 37:-0.568057 38:-0.940532 39:0.413826 40:-1 41:0.365843 42:-1 43:-1 44:-1 45:-0.689083 46:-1 47:-1 48:-0.871669 49:-1 50:-1 51:-0.856019 52:-1 53:-1 54:-1 55:-0.661963 56:-1 57:-1 58:-0.859149 59:0.307617 60:-0.854452 61:-0.754413 62:-1 63:-1 64:-0.69013 65:-1 66:-0.674484 67:-0.718297 68:-0.92801 69:-0.906099 70:-0.88471 71:-0.718297 72:-0.510593 73:-0.87793 74:-0.838285 75:-0.852893 76:-0.868543 77:-1 78:-0.629088 79:-1 80:-1 81:-0.876363 82:-0.356805 83:0.139306 84:-0.83098 85:-1 86:-0.881061 87:-0.95931 88:-0.784034 89:-0.630657 90:-0.889824 91:-1 92:-1 93:-0.445985 94:-1 95:-0.824719 96:-0.929888 97:-0.790285 98:-0.824719 99:-0.79968 100:-1 101:-1 102:-0.649437 103:-1 104:-1 105:-1 106:-0.837242 107:-0.248792 108:-1 109:-0.733163 110:-1 111:-1 112:-1 113:-0.939487 114:-0.784029 115:-0.838285 116:-1 117:-0.571204 118:-0.649437 119:-0.95931 120:-0.645265 121:-1 122:0.464822 123:0.0516968 124:-0.857065 125:-0.248834 126:-0.939487 127:-0.718297 128:-0.549251 129:-0.474171 130:-0.790285 131:-0.866453 132:-0.815328 133:-0.718313 134:-0.96244 135:-1 136:-0.920707 137:-0.596233 138:-0.857273 139:-0.882625 140:-0.615006 141:-1 142:-0.944834 143:-0.91549 144:-0.359394 145:-0.718301 146:-0.774642 147:-0.632737 148:-1 149:-1 150:-0.92801 151:-0.697433 152:-0.791333 153:-0.92801 154:-0.837242 155:-1 156:-0.881061 157:-1 158:-0.80281 159:-0.849761 160:-0.91862 161:-0.774642 162:-0.933227 163:-1 164:-1 165:-0.615006 166:-0.636912 167:-0.886425 168:-0.861651 169:-0.92801 170:-0.90297 171:-0.906099 172:-1 173:-1 174:-0.442068 175:-0.92801 176:0.0851101 177:-1 178:-0.674484 179:-1 180:-0.790285 181:-1 182:-1 183:-0.790285 184:-0.884672 185:-0.342693 186:-0.91549 187:-0.533636 188:-1 189:-1 190:-0.370854 191:-1 192:-1 193:-0.680743 194:-0.724569 195:-0.69952 196:-1 197:-0.298874 198:-1 199:-0.424077 200:-1 201:-1 202:-1 203:-0.213831 204:-1 205:-1 206:-0.91549 207:-1 208:-0.784029 209:-0.871669 210:-0.530495 211:-0.774642 212:-0.790292 213:-0.58057 214:-0.718297 215:-0.496067 216:-1 217:-1 218:-0.856019 219:-1 220:-1 221:-1 222:-1 223:-0.640075 224:-1 225:0.383409 226:-1 227:-1 228:-1 229:-0.871669 230:-1 231:0.212896 232:-0.83098 233:-0.856019 234:-0.712038 235:-1 236:-1 237:-0.57745 238:-1 239:-1 240:-0.91549 241:-1 242:-1 243:-1 244:-1 245:-0.370854 246:-0.92801 247:-1 248:-1 249:-0.83724 250:-0.580577 251:-1 252:-0.856019 253:-1 254:-0.161139 255:-0.708905 256:-0.712038 257:-1 258:-1 259:-0.92801 260:-0.871669 261:-1 262:-1 263:0.155655 264:-0.563357 265:-1 266:-0.892016 267:-0.837242 268:-0.436594 269:-0.79968 270:-0.856019 271:-1 272:-0.834866 273:-1 274:-0.75712 275:-0.640048 276:0.0891744 277:-1 278:-1 279:-1 280:-0.74647 281:-0.87793 282:-1 283:-0.370875 284:-0.636923 285:-0.300454 286:-0.751173 287:-0.982472 288:-1 289:-0.703991 290:-1 291:-1 292:-1 293:-0.92801 294:-0.859149 295:-0.9061 296:-1 297:-0.788199 298:-1 299:-0.18621 300:-0.39904 301:-0.66196 302:-0.511726 303:1 304:-1 305:-0.856019 306:-1 307:-0.920707 308:-1 309:-1 
-33.69736520465118 -28.59279501889151 0 22.26998398324885 0 13.41049722326125 22.44358058676895 8.582145290781906 30.06324863632964 0 8.720063236222808 11.5104440289524 0:-1 1:-0.073995 2:-0.745737 3:-0.821138 4:-1 5:-0.855753 6:-0.256146 7:-1 8:-0.886119 9:-0.931684 10:-0.650858 11:-1 12:-0.544462 13:-1 14:-0.90133 15:-0.694493 16:-0.703985 17:-0.625899 18:-1 19:-0.897508 20:-1 21:-1 22:-1 23:-1 24:-0.812552 25:-1 26:-1 27:-0.897508 28:-1 29:-0.76724 30:-1 31:-1 32:-0.581288 33:-1 34:-0.811463 35:-1 36:-1 37:-0.73812 38:-0.931688 39:1 40:-1 41:0.242023 42:-1 43:-1 44:-0.757056 45:-0.623026 46:-1 47:-1 48:-0.844362 49:-1 50:-1 51:-0.912691 52:-1 53:-1 54:-0.80261 55:-0.726762 56:-1 57:-1 58:-0.829178 59:-0.471383 60:-1 61:-0.404472 62:-1 63:-0.772708 64:-0.248589 65:-1 66:-0.80261 67:-0.772298 68:-1 69:-0.886119 70:-1 71:-1 72:-0.406614 73:-0.80266 74:-1 75:-1 76:-1 77:-1 78:-0.850055 79:-1 80:-1 81:-1 82:-0.480101 83:-0.407935 84:-0.79507 85:-1 86:-0.855753 87:-1 88:-1 89:-0.776034 90:-1 91:-1 92:-1 93:-0.32822 94:-1 95:-0.787422 96:-0.957485 97:-1 98:-0.787422 99:-1 100:-1 101:-1 102:-1 103:-1 104:-0.605325 105:-1 106:-0.802662 107:-0.544595 108:-0.80261 109:-1 110:-1 111:-1 112:-0.850055 113:-0.92661 114:-0.563549 115:-0.803875 116:-0.886119 117:-0.739982 118:-0.787422 119:-0.950652 120:-0.569899 121:-1 122:-0.0132598 123:0.457303 124:-0.826651 125:0.0815846 126:-0.85326 127:-0.772298 128:-1 129:-0.0435951 130:-0.745662 131:-0.757099 132:-0.776034 133:-0.749525 134:-0.886144 135:-1 136:-0.903835 137:-0.510406 138:-1 139:-0.85768 140:-0.766544 141:-1 142:-0.933096 143:-0.79507 144:-0.611543 145:-0.658452 146:-0.72669 147:-0.332004 148:-1 149:-1 150:-0.912691 151:-0.706519 152:-1 153:-1 154:-0.80261 155:-1 156:-0.855753 157:-1 158:-0.760852 159:-0.726738 160:-0.950652 161:-0.72669 162:-0.919019 163:-1 164:-1 165:-0.533087 166:-1 167:-0.862259 168:-0.832214 169:-0.912691 170:-0.882324 171:-0.772298 172:-1 173:-1 174:-1 175:-0.912715 176:0.315653 177:-1 178:-0.605325 179:-1 180:-0.745662 181:-1 182:-1 183:-0.745662 184:-0.860133 185:-0.203012 186:-0.846289 187:-0.434553 188:-1 189:-1 190:-0.745662 191:-0.805453 192:-0.825429 193:-0.612811 194:-1 195:-0.75712 196:-0.779827 197:-0.574957 198:-1 199:-0.476287 200:-1 201:-1 202:-0.845553 203:-0.364534 204:-0.901151 205:-1 206:-1 207:-0.950652 208:-0.700736 209:-1 210:-0.544595 211:-0.72669 212:-0.872835 213:-0.745662 214:-0.886119 215:-0.388978 216:-1 217:-1 218:-0.825429 219:-1 220:-1 221:-0.79926 222:-1 223:-0.432639 224:-1 225:0.233389 226:-1 227:-1 228:-1 229:-0.688807 230:-1 231:0.176471 232:-0.897508 233:-0.825383 234:-0.73812 235:-1 236:-1 237:-0.79507 238:-1 239:-1 240:-1 241:-1 242:-1 243:-0.886119 244:-0.901305 245:-0.237119 246:-1 247:-0.6964 248:-1 249:-0.90133 250:-0.682149 251:-1 252:-0.912691 253:-1 254:-0.745662 255:-1 256:-0.912691 257:-1 258:-1 259:-1 260:-0.844362 261:-1 262:-1 263:0.138532 264:-0.470542 265:-0.863821 266:-1 267:-0.80261 268:-0.430714 269:-0.757056 270:-0.825429 271:-0.72669 272:-0.866521 273:-1 274:-0.70544 275:-0.912691 276:0.210626 277:-1 278:-1 279:-1 280:-0.59014 281:-0.90133 282:-1 283:-0.364309 284:-0.669808 285:-0.434553 286:-0.698227 287:-0.957496 288:-1 289:-0.641101 290:-1 291:-1 292:-1 293:-1 294:-0.829178 295:-0.90892 296:-1 297:-0.486399 298:-1 299:-0.605325 300:-0.635648 301:-0.487647 302:-0.605325 303:0.364112 304:-1 305:-0.650858 306:-1 307:-0.903835 308:-0.434489 309:-1 
-5.498493592376183 -0 16.97956799407898 3.470555800629963 5.200987623530944 0 7.606097649802503 0 0 13.80932884167768 0 33.54410364030213 0:-1 1:-0.745257 2:-1 3:-1 4:-1 5:-0.524016 6:0.28605 7:-1 8:-0.624216 9:-0.974944 10:-0.807949 11:-0.921415 12:-0.49886 13:-0.903951 14:-1 15:-0.903976 16:-0.874744 17:-0.58845 18:-0.720201 19:-0.887248 20:-1 21:-1 22:-1 23:-0.586642 24:-0.793788 25:-0.67157 26:-0.807903 27:-0.323595 28:-0.947104 29:-0.839951 30:-0.825891 31:-0.65399 32:0.151652 33:-0.659592 34:-0.79259 35:-1 36:-0.755001 37:-0.7119 38:-0.974948 39:-0.607084 40:-1 41:-0.316751 42:-1 43:-1 44:-1 45:-0.79259 46:-1 47:-1 48:-0.828782 49:-0.870544 50:-1 51:-1 52:-0.871381 53:-1 54:-1 55:-1 56:-1 57:-0.874719 58:-1 59:-1 60:-0.805813 61:0.474225 62:-1 63:-0.50003 64:-0.173349 65:-1 66:-0.565805 67:-1 68:-1 69:-0.874719 70:-0.846182 71:-0.624156 72:-0.67352 73:-1 74:-0.352829 75:-0.803732 76:-0.824612 77:-1 78:-0.835045 79:-1 80:-0.670169 81:-1 82:-0.428043 83:-1 84:-0.77455 85:-1 86:-0.524016 87:-0.945712 88:-0.711861 89:-1 90:-1 91:-0.69933 92:-1 93:0.231695 94:-1 95:-0.766142 96:-0.158255 97:-0.440536 98:-1 99:-1 100:-1 101:-1 102:-0.0646805 103:-0.852797 104:-1 105:-1 106:-1 107:-0.874719 108:-1 109:-0.64399 110:-1 111:-0.574153 112:-1 113:-0.434924 114:-1 115:-1 116:-0.624216 117:-1 118:-1 119:-1 120:-0.763359 121:-1 122:-0.565805 123:-0.398742 124:-0.809298 125:-0.624222 126:-1 127:-0.373714 128:-0.398618 129:0.753549 130:-1 131:-1 132:-0.753614 133:-0.799588 134:-0.924844 135:-0.713953 136:-0.788468 137:-1 138:-0.619243 139:-0.906055 140:-1 141:-0.903951 142:-0.852832 143:-0.887248 144:-1 145:-0.93736 146:-0.398805 147:-1 148:-1 149:-0.732736 150:-1 151:-0.354226 152:-1 153:-1 154:-1 155:-0.271442 156:-1 157:-0.778673 158:-0.473949 159:-1 160:-0.89145 161:-0.398805 162:-0.910912 163:-1 164:-1 165:-0.486347 166:-1 167:-0.848471 168:-1 169:-1 170:-1 171:-1 172:-1 173:-1 174:-0.627807 175:-0.951976 176:0.0856301 177:-1 178:-1 179:-0.716068 180:-0.720201 181:-1 182:-1 183:-1 184:1 185:0.252633 186:-0.830899 187:-0.688892 188:-1 189:-1 190:-0.160737 191:-0.785978 192:-0.903951 193:-1 194:-1 195:-0.7328 196:-0.757787 197:-0.0646805 198:-1 199:-0.615852 200:-1 201:-1 202:-0.660265 203:-1 204:-1 205:-0.611643 206:-1 207:-1 208:-0.876529 209:-0.486429 210:0.00207002 211:-1 212:-1 213:-1 214:-0.874719 215:-0.807949 216:-1 217:0.50318 218:-1 219:-1 220:-1 221:-1 222:-1 223:-0.855952 224:-1 225:-0.022971 226:-1 227:-1 228:-0.313999 229:-0.657647 230:-1 231:0.617918 232:-1 233:-0.807903 234:-0.807949 235:-1 236:-1 237:0.352809 238:-1 239:-0.824759 240:-0.323595 241:-1 242:-0.699402 243:-1 244:-1 245:-0.160737 246:-1 247:-1 248:-1 249:-0.945712 250:-0.720239 251:-1 252:-0.807949 253:-1 254:-0.720201 255:-1 256:-0.903951 257:-0.507346 258:-0.48647 259:-0.903951 260:-1 261:-0.506034 262:-0.123163 263:-0.807306 264:-1 265:-0.550637 266:-0.951976 267:-0.565805 268:-0.874719 269:-1 270:-1 271:-1 272:-0.706276 273:-1 274:-1 275:-1 276:0.453006 277:-0.909343 278:-1 279:-1 280:-0.77455 281:-0.945712 282:-1 283:-1 284:-0.152394 285:-1 286:-1 287:-0.812948 288:-1 289:0.283336 290:-1 291:-1 292:-0.682627 293:-1 294:-1 295:-0.9499 296:-1 297:-0.717418 298:0.382103 299:-1 300:-0.465536 301:-0.549046 302:-1 303:-0.49974 304:-1 305:-0.231703 306:-1 307:-0.894209 308:-0.585279 309:-1 
-12.47213105887143 -19.94422522476034 -12.43543317439318 9.37719628473252 22.82952286214799 11.42776921249616 10.19233072279453 23.99724072037986 9.271380031931265 43.2924585472497 25.21995017541467 11.97588599208579 0:-0.844244 1:-0.942902 2:-0.937222 3:-0.624697 4:-0.383654 5:-0.857577 6:-0.921319 7:-0.872145 8:-0.887559 9:-0.98314 10:-0.93537 11:-0.823711 12:0.236529 13:-0.978472 14:-0.939108 15:-0.967685 16:-1 17:-0.723071 18:-0.560603 19:0.0876151 20:-0.627387 21:0.706375 22:-0.156872 23:-0.134409 24:-0.0285912 25:-0.336768 26:-1 27:-0.873532 28:-0.584709 29:-0.956913 30:-0.53129 31:-0.534344 32:-0.0181497 33:-0.338098 34:-0.906924 35:0.423059 36:-0.945087 37:-0.956898 38:-0.995316 39:-1 40:-0.849165 41:-0.948945 42:-0.715154 43:-1 44:-0.940096 45:-0.860435 46:-0.34795 47:-0.932609 48:-0.654367 49:-0.941906 50:-0.952026 51:-0.978472 52:0.211778 53:-0.725198 54:-0.951329 55:-1 56:-0.95203 57:-0.943779 58:-0.831338 59:-0.0867567 60:-0.651523 61:-0.044488 62:-0.674033 63:-0.102569 64:-0.0725671 65:-0.82016 66:-0.853882 67:-1 68:-0.806109 69:-0.775178 70:-0.827471 71:-0.747097 72:-0.780314 73:-0.902578 74:-0.903177 75:-0.295577 76:-0.685258 77:-0.831338 78:-0.889003 79:-0.874439 80:-0.925976 81:-0.889003 82:-0.807521 83:-1 84:-0.974728 85:-0.0896954 86:-0.288038 87:-0.92694 88:-0.935417 89:-0.944776 90:-0.901088 91:-0.730146 92:-0.834335 93:-0.170925 94:0.121046 95:0.101641 96:-0.832135 97:-0.184054 98:-0.895055 99:-0.700224 100:-0.748878 101:-0.64032 102:-1 103:0.122704 104:-0.853882 105:-0.37517 106:-0.975664 107:-1 108:-0.902553 109:-0.680477 110:-0.740369 111:-0.522236 112:-0.814979 113:-0.909442 114:-1 115:-0.903177 116:-0.915699 117:-0.871635 118:-0.842639 119:-0.92694 120:-0.416105 121:-0.955168 122:-0.805106 123:-0.820093 124:-0.743356 125:-0.95785 126:-0.782654 127:-0.915699 128:-0.865207 129:-0.685174 130:-0.874439 131:-1 132:-0.834209 133:-0.960652 134:-0.955036 135:-0.871635 136:-0.810154 137:-0.879171 138:-0.700958 139:-0.978925 140:-0.942435 141:-0.956898 142:-0.702809 143:-0.569998 144:-0.616455 145:-0.95785 146:-0.527828 147:-0.670285 148:-0.97192 149:-1 150:-0.870739 151:-0.800789 152:-0.5628 153:-0.870739 154:-0.415423 155:-0.836489 156:-0.964432 157:-0.900678 158:-0.232785 159:-0.955024 160:-0.914746 161:-0.662755 162:-0.940053 163:-0.615963 164:0.934268 165:-0.654367 166:-0.728322 167:-0.762038 168:-0.875796 169:-0.913795 170:-0.82578 171:-0.943779 172:-0.913795 173:-0.259915 174:0.335829 175:-0.978449 176:-0.756457 177:-0.782836 178:-0.902553 179:-0.442642 180:-0.497889 181:-0.435176 182:-0.831398 183:-0.560603 184:-0.585777 185:-0.775178 186:-0.936766 187:-0.720778 188:-0.707764 189:-0.851951 190:-0.686164 191:-0.903957 192:-1 193:-0.904529 194:-0.670187 195:-0.91008 196:-0.837016 197:-0.737694 198:-0.93537 199:-0.93537 200:-0.658988 201:-0.752728 202:-0.313939 203:-1 204:-0.731681 205:-0.564401 206:-0.898804 207:-0.939108 208:-0.972301 209:-0.769578 210:-0.747097 211:-1 212:-0.937222 213:-0.874439 214:-0.887559 215:-0.93537 216:-0.934728 217:0.573743 218:-0.849165 219:-0.873549 220:-0.278215 221:-0.4055 222:-0.771366 223:-0.946134 224:-0.404021 225:-0.96347 226:-0.615042 227:-0.730127 228:-0.923102 229:-0.923165 230:-0.949402 231:-0.854762 232:-0.949402 233:0.120383 234:-0.93537 235:-0.853882 236:-0.980032 237:-0.873532 238:-0.926055 239:0.454469 240:-0.038853 241:-0.590644 242:-0.898841 243:-0.943779 244:-1 245:-0.811725 246:-0.849165 247:-0.47544 248:-0.977536 249:-0.987832 250:-0.921542 251:0.239274 252:-0.93537 253:-0.741392 254:-1 255:-1 256:-1 257:-0.834209 258:-0.48155 259:-0.956898 260:-0.84633 261:-0.298131 262:-0.557434 263:-0.9784 264:-0.912857 265:-0.764735 266:-0.946134 267:-0.756435 268:-0.831398 269:-0.880064 270:-0.956898 271:-0.797682 272:-0.654046 273:-0.527828 274:-0.854582 275:-1 276:-0.918511 277:-0.786418 278:-0.536315 279:-0.851951 280:-0.92413 281:-0.902578 282:-0.000133422 283:-0.905866 284:-0.809819 285:-0.930269 286:-0.851022 287:-0.916067 288:-0.949402 289:-0.82282 290:-0.686164 291:-0.868847 292:-0.928865 293:-0.590644 294:-0.747097 295:-0.988756 296:0.0809903 297:-0.87319 298:0.13693 299:-0.853882 300:-0.73024 301:-0.898804 302:-0.853882 303:-0.962618 304:-0.859479 305:-0.224343 306:-0.760128 307:-0.88134 308:-0.813847 309:-0.915699 
-29.58028661020366 -29.15129659728616 -38.35629078226692 32.72359804276611 34.06671911628299 27.24115186792952 41.00905554650726 16.59708705313728 26.62449976620974 30.57434798583704 16.622734313193 74.48817560831618 0:-0.866748 1:-0.853352 2:-0.838933 3:-0.716743 4:-0.849321 5:-0.878173 6:-0.753206 7:-0.781236 8:-0.639396 9:-0.985576 10:-0.797277 11:-0.924614 12:0.0577223 13:-0.926262 14:-0.927096 15:-0.953931 16:-0.975964 17:-0.763083 18:-0.785193 19:0.016821 20:-0.433345 21:0.342805 22:-0.387004 23:-0.259611 24:0.345316 25:-0.590308 26:-0.889415 27:-0.740368 28:-0.74626 29:-0.963139 30:-0.498853 31:-0.734361 32:-0.469521 33:-0.629807 34:-0.920433 35:0.0954479 36:-0.906013 37:-0.981554 38:-0.991988 39:-0.969848 40:-0.815723 41:-0.825124 42:-0.695546 43:-0.946299 44:-0.692288 45:-0.801033 46:-0.72113 47:-0.71157 48:-0.835752 49:-0.950338 50:-0.969229 51:-0.963154 52:-0.407725 53:-0.52995 54:-0.916697 55:-0.884585 56:-0.958897 57:-0.879819 58:-0.927909 59:-0.330455 60:-0.552848 61:0.257434 62:-0.72113 63:0.343393 64:-0.444807 65:-0.794816 66:-0.874994 67:-0.95194 68:-0.907861 69:-0.879819 70:-0.822903 71:-0.855819 72:-0.498866 73:-0.947922 74:-0.834358 75:0.054472 76:-0.764469 77:-0.891819 78:-0.68352 79:-0.785193 80:-0.873361 81:-0.7468 82:-0.780396 83:-0.874994 84:-0.956746 85:-0.153661 86:-0.0865633 87:-0.84374 88:-1 89:-0.858163 90:-0.830758 91:-0.826913 92:-0.681223 93:-0.527288 94:0.438366 95:-0.102537 96:-0.739735 97:-0.731591 98:-0.73075 99:-0.384576 100:-0.946265 101:-0.794816 102:-0.4615 103:0.609997 104:-1 105:0.0688745 106:-0.937497 107:-0.97594 108:-0.79169 109:-0.453538 110:-0.822294 111:-0.591391 112:-0.90504 113:-0.690163 114:-0.926262 115:-0.710256 116:-0.759638 117:-0.835331 118:-1 119:-0.906244 120:-0.273531 121:-0.961657 122:-0.958297 123:-0.961503 124:-0.926843 125:-0.95191 126:-0.907045 127:-0.903819 128:-0.653802 129:-0.932633 130:-0.946265 131:-0.880363 132:-0.810844 133:-0.975964 134:-0.956728 135:-1 136:-0.878198 137:-0.793258 138:-0.634656 139:-0.96394 140:-0.802829 141:-0.981554 142:-0.90116 143:-0.67546 144:-0.590053 145:-0.95191 146:-0.596227 147:-0.623937 148:-0.95194 149:-0.846144 150:-0.907861 151:-0.752146 152:-0.732933 153:-0.963154 154:-0.874994 155:-0.650467 156:-0.878173 157:-0.660271 158:-0.242739 159:-0.923057 160:-0.947922 161:-0.596227 162:-0.965824 163:-0.67145 164:0.309817 165:-1 166:-0.72113 167:-0.738307 168:-1 169:-0.907861 170:-0.850952 171:-0.97594 172:-0.907861 173:-0.620161 174:0.428342 175:-0.972354 176:-0.791645 177:-0.851361 178:-0.708387 179:-0.673093 180:-0.516784 181:-0.355712 182:-1 183:-0.731591 184:-0.261901 185:-0.855759 186:-0.935092 187:-0.880653 188:-0.79169 189:-0.84176 190:-0.731591 191:-0.917897 192:-0.963154 193:-0.836597 194:-0.788455 195:-0.897408 196:-0.953483 197:-0.416699 198:-0.963154 199:-0.963154 200:-0.83329 201:-1 202:-0.315404 203:-0.664601 204:-0.41576 205:-0.776434 206:-0.870184 207:-0.937496 208:-0.984209 209:-0.835752 210:-0.903819 211:-0.71157 212:-0.946333 213:-0.892663 214:-0.855759 215:-0.963154 216:-1 217:-0.327013 218:-0.834123 219:-0.819728 220:-0.302067 221:-0.618614 222:-0.804429 223:-0.953931 224:-0.558232 225:-0.91667 226:-0.560929 227:-0.538306 228:-0.53927 229:-0.967118 230:-0.956746 231:-0.68953 232:-0.978346 233:-0.447077 234:-0.834123 235:-0.916697 236:-0.897429 237:-0.697114 238:-0.68352 239:0.345027 240:-0.394227 241:-0.723538 242:-0.884585 243:-0.903819 244:-0.854194 245:-0.838928 246:-0.668246 247:-0.71152 248:-0.903857 249:-0.989574 250:-0.919465 251:-0.242865 252:-0.834123 253:-0.944663 254:-0.838928 255:-0.925506 256:-0.778831 257:-0.621807 258:-0.605781 259:-0.907861 260:-0.80287 261:0.990693 262:-0.537274 263:-0.852076 264:-0.70193 265:-0.770045 266:-0.944708 267:-0.83329 268:-0.831758 269:-0.794816 270:-0.889415 271:-0.826913 272:-0.704096 273:-0.71157 274:-0.751222 275:-0.963154 276:-0.907027 277:-0.817317 278:-0.495185 279:-0.936641 280:-0.891838 281:-0.906244 282:-0.401308 283:-0.946333 284:-0.907027 285:-0.940252 286:-0.490421 287:-0.94167 288:-0.956746 289:-0.829487 290:-0.946265 291:-0.820519 292:-0.756346 293:-0.815723 294:-0.639456 295:-0.985576 296:0.0927402 297:-0.728921 298:-0.38122 299:-0.874994 300:-0.769216 301:-0.913438 302:-0.916697 303:-1 304:-0.927879 305:-0.410276 306:-0.897472 307:-0.817297 308:-0.840767 309:-1 
